{"learner":{"attributes":{"scikit_learn":"{\"_estimator_type\": \"regressor\"}"},"feature_names":["LL","FC","CEM_I","CEM_II","CEM_III","ρnorm","ωnorm","C","T","nCiv"],"feature_types":["float","float","float","float","float","float","float","int","int","float"],"gradient_booster":{"model":{"gbtree_model_param":{"num_parallel_tree":"1","num_trees":"150"},"iteration_indptr":[0,1,2,3,4,5,6,7,8,9,10,11,12,13,14,15,16,17,18,19,20,21,22,23,24,25,26,27,28,29,30,31,32,33,34,35,36,37,38,39,40,41,42,43,44,45,46,47,48,49,50,51,52,53,54,55,56,57,58,59,60,61,62,63,64,65,66,67,68,69,70,71,72,73,74,75,76,77,78,79,80,81,82,83,84,85,86,87,88,89,90,91,92,93,94,95,96,97,98,99,100,101,102,103,104,105,106,107,108,109,110,111,112,113,114,115,116,117,118,119,120,121,122,123,124,125,126,127,128,129,130,131,132,133,134,135,136,137,138,139,140,141,142,143,144,145,146,147,148,149,150],"tree_info":[0,0,0,0,0,0,0,0,0,0,0,0,0,0,0,0,0,0,0,0,0,0,0,0,0,0,0,0,0,0,0,0,0,0,0,0,0,0,0,0,0,0,0,0,0,0,0,0,0,0,0,0,0,0,0,0,0,0,0,0,0,0,0,0,0,0,0,0,0,0,0,0,0,0,0,0,0,0,0,0,0,0,0,0,0,0,0,0,0,0,0,0,0,0,0,0,0,0,0,0,0,0,0,0,0,0,0,0,0,0,0,0,0,0,0,0,0,0,0,0,0,0,0,0,0,0,0,0,0,0,0,0,0,0,0,0,0,0,0,0,0,0,0,0,0,0,0,0,0,0],"trees":[{"base_weights":[-5.9854748E1,-6.98489E2,6.863148E2,-8.3267773E2,-1.26787224E2,-3.370527E2,1.2742487E3,-2.671271E2,-7.314458E2,-9.215893E1,4.321316E1,-6.532779E2,1.0101698E2,2.1933064E3,7.807242E2,-2.510482E2,-6.189499E2,-1.8005034E2,-5.49146E1,2.2515791E2,5.9673444E2,2.78297E1,1.0441821E3,-1.6865428E2,-6.302476E1,2.6860278E2,7.7535034E1],"categories":[],"categories_nodes":[],"categories_segments":[],"categories_sizes":[],"default_left":[0,0,0,0,0,0,0,0,0,0,0,0,0,0,0,0,0,0,0,0,0,0,0,0,0,0,0],"id":0,"left_children":[1,3,5,7,9,11,13,-1,15,-1,-1,17,-1,19,21,-1,23,-1,-1,-1,-1,-1,25,-1,-1,-1,-1],"loss_changes":[7.395908E7,6.350104E6,4.3337444E7,2.855716E6,1.9606938E6,7.281694E6,1.9655712E7,0E0,2.927906E6,0E0,0E0,1.684881E6,0E0,1.1146776E7,5.085086E6,0E0,3.15288E6,0E0,0E0,0E0,0E0,0E0,3.925206E6,0E0,0E0,0E0,0E0],"parents":[2147483647,0,0,1,1,2,2,3,3,4,4,5,5,6,6,8,8,11,11,13,13,14,14,16,16,22,22],"right_children":[2,4,6,8,10,12,14,-1,16,-1,-1,18,-1,20,22,-1,24,-1,-1,-1,-1,-1,26,-1,-1,-1,-1],"split_conditions":[9.6791446E-1,6E1,5E0,7.638889E-1,4E0,6E1,1E0,-2.671271E2,1E0,-9.215893E1,4.321316E1,4.4E1,1.0101698E2,1.4E1,7E0,-2.510482E2,6E0,-1.8005034E2,-5.49146E1,2.2515791E2,5.9673444E2,2.78297E1,6.5E1,-1.6865428E2,-6.302476E1,2.6860278E2,7.7535034E1],"split_indices":[5,8,7,6,7,8,6,0,8,0,0,1,0,8,8,0,7,0,0,0,0,0,1,0,0,0,0],"split_type":[0,0,0,0,0,0,0,0,0,0,0,0,0,0,0,0,0,0,0,0,0,0,0,0,0,0,0],"sum_hessian":[1.54E2,8.3E1,7.1E1,6.7E1,1.6E1,2.6E1,4.5E1,1E1,5.7E1,8E0,8E0,1.9E1,7E0,1.5E1,3E1,9E0,4.8E1,1.1E1,8E0,7E0,8E0,9E0,2.1E1,2.7E1,2.1E1,1.4E1,7E0],"tree_param":{"num_deleted":"0","num_feature":"10","num_nodes":"27","size_leaf_vector":"1"}},{"base_weights":[1.6870928E1,8.834006E2,-4.4085577E2,-4.2441827E2,1.5711285E3,-7.130339E2,-2.0869762E2,-1.356109E2,-7.565115E-1,1.697352E2,1.8441091E3,-2.0548921E2,-5.823966E2,-4.5725092E2,8.358346E1,3.1308646E2,4.687757E2,-1.5058704E2,-4.6673807E2,-1.1719088E2,-4.5446125E1,-5.3113933E0,6.063114E1,-6.152856E1,-1.4710414E2],"categories":[],"categories_nodes":[],"categories_segments":[],"categories_sizes":[],"default_left":[0,0,0,0,0,0,0,0,0,0,0,0,0,0,0,0,0,0,0,0,0,0,0,0,0],"id":1,"left_children":[1,3,5,7,9,11,13,-1,-1,-1,15,-1,17,19,21,-1,-1,-1,23,-1,-1,-1,-1,-1,-1],"loss_changes":[6.0363348E7,4.7709776E7,6.204276E6,1.9828662E6,5.884616E6,1.513944E6,3.9894802E6,0E0,0E0,0E0,1.22464E6,0E0,4.51879E5,7.96402E5,6.239353E5,0E0,0E0,0E0,7.87894E5,0E0,0E0,0E0,0E0,0E0,0E0],"parents":[2147483647,0,0,1,1,2,2,3,3,4,4,5,5,6,6,10,10,12,12,13,13,14,14,18,18],"right_children":[2,4,6,8,10,12,14,-1,-1,-1,16,-1,18,20,22,-1,-1,-1,24,-1,-1,-1,-1,-1,-1],"split_conditions":[6.5E1,5E0,2.1E1,5.4E1,4.4E1,1E0,4E0,-1.356109E2,-7.565115E-1,1.697352E2,7E0,-2.0548921E2,4E0,6E1,6E1,3.1308646E2,4.687757E2,-1.5058704E2,9E0,-1.1719088E2,-4.5446125E1,-5.3113933E0,6.063114E1,-6.152856E1,-1.4710414E2],"split_indices":[1,7,8,0,1,8,7,0,0,0,7,0,7,8,8,0,0,0,7,0,0,0,0,0,0],"split_type":[0,0,0,0,0,0,0,0,0,0,0,0,0,0,0,0,0,0,0,0,0,0,0,0,0],"sum_hessian":[1.51E2,5.2E1,9.9E1,1.8E1,3.4E1,4.5E1,5.4E1,1.1E1,7E0,1E1,2.4E1,1.2E1,3.3E1,2.9E1,2.5E1,1.7E1,7E0,1.2E1,2.1E1,1.8E1,1.1E1,1.7E1,8E0,1.4E1,7E0],"tree_param":{"num_deleted":"0","num_feature":"10","num_nodes":"25","size_leaf_vector":"1"}},{"base_weights":[5.5026356E1,1.0176907E3,-4.3391138E2,1.6818116E3,5.9234827E2,-5.696142E2,2.6808016E1,1.9927547E2,4.1391232E2,8.5150934E2,-4.4086918E1,-1.8557994E2,-4.805598E2,-2.6169467E2,1.16363E2,8.594272E1,2.4094482E2,-4.1046503E2,-1.8493102E2,-1.4085906E1,-7.93514E1,-4.944013E1,-1.23025856E2],"categories":[],"categories_nodes":[],"categories_segments":[],"categories_sizes":[],"default_left":[0,0,0,0,0,0,0,0,0,0,0,0,0,0,0,0,0,0,0,0,0,0,0],"id":2,"left_children":[1,3,5,7,9,11,13,-1,-1,15,-1,-1,17,19,-1,-1,-1,21,-1,-1,-1,-1,-1],"loss_changes":[7.491526E7,1.4543132E7,6.61137E6,4.237768E6,7.19018E6,2.336058E6,4.0303312E6,0E0,0E0,3.503392E6,0E0,0E0,1.845452E6,4.12057E5,0E0,0E0,0E0,1.866846E6,0E0,0E0,0E0,0E0,0E0],"parents":[2147483647,0,0,1,1,2,2,3,3,4,4,5,5,6,6,9,9,12,12,13,13,17,17],"right_children":[2,4,6,8,10,12,14,-1,-1,16,-1,-1,18,20,-1,-1,-1,22,-1,-1,-1,-1,-1],"split_conditions":[1.1466E1,8.032423E0,6E1,1.4E1,1.0786517E0,3E0,9.144385E-1,1.9927547E2,4.1391232E2,1.4E1,-4.4086918E1,-1.8557994E2,1E0,1.261396E1,1.16363E2,8.594272E1,2.4094482E2,2.3212E1,-1.8493102E2,-1.4085906E1,-7.93514E1,-4.944013E1,-1.23025856E2],"split_indices":[9,9,8,8,6,8,5,0,0,8,0,0,2,9,0,0,0,9,0,0,0,0,0],"split_type":[0,0,0,0,0,0,0,0,0,0,0,0,0,0,0,0,0,0,0,0,0,0,0],"sum_hessian":[1.58E2,5.3E1,1.05E2,2E1,3.3E1,8.1E1,2.4E1,8E0,1.2E1,2.5E1,8E0,1.5E1,6.6E1,1.6E1,8E0,1.2E1,1.3E1,5.8E1,8E0,7E0,9E0,3.3E1,2.5E1],"tree_param":{"num_deleted":"0","num_feature":"10","num_nodes":"23","size_leaf_vector":"1"}},{"base_weights":[1.4222784E1,-9.233302E1,6.4868097E2,-2.3068718E2,3.7026398E2,2.739039E2,2.8321225E2,-4.0083066E2,-3.0908134E1,-1.6084564E2,9.907247E2,1.0043433E2,5.305315E0,-3.6107108E2,-1.1624064E2,6.561183E1,-5.431979E1,9.493273E1,2.998784E2,-6.186463E1,-9.965993E1,9.691542E0,2.3616343E1],"categories":[],"categories_nodes":[],"categories_segments":[],"categories_sizes":[],"default_left":[0,0,0,0,0,0,0,0,0,0,0,0,0,0,0,0,0,0,0,0,0,0,0],"id":3,"left_children":[1,3,5,7,9,11,-1,13,15,-1,17,-1,-1,19,-1,21,-1,-1,-1,-1,-1,-1,-1],"loss_changes":[1.1096147E7,9.049962E6,6.55456E6,3.6840005E6,2.4234538E7,9.293809E5,0E0,2.94338E5,1.1862042E6,0E0,5.243046E6,0E0,0E0,2.597425E5,0E0,2.9509547E4,0E0,0E0,0E0,0E0,0E0,0E0,0E0],"parents":[2147483647,0,0,1,1,2,2,3,3,4,4,5,5,7,7,8,8,10,10,13,13,15,15],"right_children":[2,4,6,8,10,12,-1,14,16,-1,18,-1,-1,20,-1,22,-1,-1,-1,-1,-1,-1,-1],"split_conditions":[5.4E1,1E0,7E0,6E0,7.638889E-1,9.787234E-1,2.8321225E2,1.25E0,1.25E0,-1.6084564E2,2.85E1,1.0043433E2,5.305315E0,5.35E1,-1.1624064E2,1.011236E0,-5.431979E1,9.493273E1,2.998784E2,-6.186463E1,-9.965993E1,9.691542E0,2.3616343E1],"split_indices":[0,2,7,7,6,6,0,6,6,0,0,0,0,0,0,6,0,0,0,0,0,0,0],"split_type":[0,0,0,0,0,0,0,0,0,0,0,0,0,0,0,0,0,0,0,0,0,0,0],"sum_hessian":[1.63E2,1.4E2,2.3E1,1.08E2,3.2E1,1.6E1,7E0,5.8E1,5E1,1.1E1,2.1E1,8E0,8E0,4.9E1,9E0,3.6E1,1.4E1,1.1E1,1E1,3.7E1,1.2E1,2.8E1,8E0],"tree_param":{"num_deleted":"0","num_feature":"10","num_nodes":"23","size_leaf_vector":"1"}},{"base_weights":[-3.0252182E1,2.9549725E2,-2.1831985E2,7.678104E2,-3.9708122E1,-4.1405737E2,-4.749392E1,1.0929119E3,-1.7689796E1,-4.7974747E2,3.1604324E2,-1.2714095E2,-3.3317462E2,6.3991666E0,-5.2307777E1,9.030117E1,2.913227E2,-1.2544683E2,-5.9758007E1,1.6638905E2,-9.237255E1,-1.309124E2,-2.4682008E2,-1.7400537E2,8.707606E1,-3.9723927E1,-7.540188E1,-4.6458492E1,-2.0396206E1,1.1697738E0,4.6764553E1],"categories":[],"categories_nodes":[],"categories_segments":[],"categories_sizes":[],"default_left":[0,0,0,0,0,0,0,0,0,0,0,0,0,0,0,0,0,0,0,0,0,0,0,0,0,0,0,0,0,0,0],"id":4,"left_children":[1,3,5,7,9,11,13,15,-1,17,19,-1,21,23,-1,-1,-1,-1,-1,-1,-1,-1,25,27,29,-1,-1,-1,-1,-1,-1],"loss_changes":[1.0306375E7,9.770923E6,3.55259E6,7.184301E6,5.8205045E6,7.62122E5,6.654515E5,3.944412E6,0E0,3.3058725E5,8.497806E6,0E0,9.465865E5,6.873297E5,0E0,0E0,0E0,0E0,0E0,0E0,0E0,0E0,1.4709188E5,4.7078438E4,3.8776562E5,0E0,0E0,0E0,0E0,0E0,0E0],"parents":[2147483647,0,0,1,1,2,2,3,3,4,4,5,5,6,6,7,7,9,9,10,10,12,12,13,13,22,22,23,23,24,24],"right_children":[2,4,6,8,10,12,14,16,-1,18,20,-1,22,24,-1,-1,-1,-1,-1,-1,-1,-1,26,28,30,-1,-1,-1,-1,-1,-1],"split_conditions":[6.5E1,5.082E1,2.1E1,1.1235955E0,5.4E1,1E0,1.25E0,5E0,-1.7689796E1,1.4E1,1.0192307E0,-1.2714095E2,7.638889E-1,8.707865E-1,-5.2307777E1,9.030117E1,2.913227E2,-1.2544683E2,-5.9758007E1,1.6638905E2,-9.237255E1,-1.309124E2,1.25E0,8.269231E-1,6E1,-3.9723927E1,-7.540188E1,-4.6458492E1,-2.0396206E1,1.1697738E0,4.6764553E1],"split_indices":[1,0,8,6,0,8,6,8,0,8,6,0,6,6,0,0,0,0,0,0,0,0,6,6,8,0,0,0,0,0,0],"split_type":[0,0,0,0,0,0,0,0,0,0,0,0,0,0,0,0,0,0,0,0,0,0,0,0,0,0,0,0,0,0,0],"sum_hessian":[1.67E2,6.1E1,1.06E2,2.5E1,3.6E1,4.9E1,5.7E1,1.8E1,7E0,1.6E1,2E1,1.2E1,3.7E1,4.6E1,1.1E1,7E0,1.1E1,8E0,8E0,1.2E1,8E0,7E0,3E1,1.4E1,3.2E1,2.3E1,7E0,7E0,7E0,2.1E1,1.1E1],"tree_param":{"num_deleted":"0","num_feature":"10","num_nodes":"31","size_leaf_vector":"1"}},{"base_weights":[-1.0872845E1,-2.7763327E2,2.8458206E2,-5.0515677E2,-2.1405106E2,5.5982983E2,8.1174255E1,-7.0832794E1,-1.21769775E2,-1.7794008E2,-9.511739E1,6.68306E2,6.1419106E1,-1.11405426E2,1.1205729E2,-2.4782092E2,4.8423595E0,1.0365236E2,1.5016028E2,-2.051632E0,-7.237593E1,-6.165713E1,-4.5349422E1,3.1870869E1,-1.9408415E1],"categories":[],"categories_nodes":[],"categories_segments":[],"categories_sizes":[],"default_left":[0,0,0,0,0,0,0,0,0,0,0,0,0,0,0,0,0,0,0,0,0,0,0,0,0],"id":5,"left_children":[1,3,5,7,9,11,13,-1,-1,15,-1,17,-1,19,-1,21,-1,-1,-1,23,-1,-1,-1,-1,-1],"loss_changes":[1.2389941E7,1.13005E6,4.1494055E6,1.4618E5,5.6877175E5,7.43193E5,4.0603042E6,0E0,0E0,8.31416E5,0E0,3.3897E4,0E0,8.650882E5,0E0,1.3614E4,0E0,0E0,0E0,3.557822E5,0E0,0E0,0E0,0E0,0E0],"parents":[2147483647,0,0,1,1,2,2,3,3,4,4,5,5,6,6,9,9,11,11,13,13,15,15,19,19],"right_children":[2,4,6,8,10,12,14,-1,-1,16,-1,18,-1,20,-1,22,-1,-1,-1,24,-1,-1,-1,-1,-1],"split_conditions":[9.6791446E-1,8.983957E-1,1E0,8.5561496E-1,1E0,5.11E1,1.0614525E0,-7.0832794E1,-1.21769775E2,9.2743605E-1,-9.511739E1,2.85E1,6.1419106E1,1.0291139E0,1.1205729E2,9.037433E-1,4.8423595E0,1.0365236E2,1.5016028E2,5.35E1,-7.237593E1,-6.165713E1,-4.5349422E1,3.1870869E1,-1.9408415E1],"split_indices":[5,5,5,5,2,1,5,0,0,5,0,0,0,5,0,5,0,0,0,0,0,0,0,0,0],"split_type":[0,0,0,0,0,0,0,0,0,0,0,0,0,0,0,0,0,0,0,0,0,0,0,0,0],"sum_hessian":[1.56E2,8.2E1,7.4E1,1.7E1,6.5E1,3.1E1,4.3E1,8E0,9E0,5.8E1,7E0,2.1E1,1E1,3.1E1,1.2E1,4.3E1,1.5E1,9E0,1.2E1,2.2E1,9E0,9E0,3.4E1,8E0,1.4E1],"tree_param":{"num_deleted":"0","num_feature":"10","num_nodes":"25","size_leaf_vector":"1"}},{"base_weights":[4.8407778E-1,-5.485195E1,2.2376323E2,-2.1861328E2,1.3952989E2,-8.6213326E1,-1.6450244E2,-5.1534958E1,4.7659393E2,-1.3391994E2,-7.299389E1,-5.443772E1,3.2130424E1,6.7470215E1,1.2543929E2,-3.5852734E1,-7.1788073E0,2.726102E1,-1.1255671E1],"categories":[],"categories_nodes":[],"categories_segments":[],"categories_sizes":[],"default_left":[0,0,0,0,0,0,0,0,0,0,0,0,0,0,0,0,0,0,0],"id":6,"left_children":[1,3,-1,5,7,-1,9,11,13,15,-1,-1,17,-1,-1,-1,-1,-1,-1],"loss_changes":[9.975401E6,4.9077325E6,0E0,9.1852125E5,4.561454E6,0E0,3.8511488E5,8.470721E5,4.09889E5,2.6105288E5,0E0,0E0,3.1405712E5,0E0,0E0,0E0,0E0,0E0,0E0],"parents":[2147483647,0,0,1,1,3,3,4,4,6,6,7,7,8,8,9,9,12,12],"right_children":[2,4,-1,6,8,-1,10,12,14,16,-1,-1,18,-1,-1,-1,-1,-1,-1],"split_conditions":[1.0670391E0,9.6791446E-1,2.2376323E2,8.983957E-1,1E0,-8.6213326E1,1E0,4.4E1,2.85E1,9.2743605E-1,-7.299389E1,-5.443772E1,1.0179105E0,6.7470215E1,1.2543929E2,-3.5852734E1,-7.1788073E0,2.726102E1,-1.1255671E1],"split_indices":[5,5,0,5,2,0,2,1,0,5,0,0,5,0,0,0,0,0,0],"split_type":[0,0,0,0,0,0,0,0,0,0,0,0,0,0,0,0,0,0,0],"sum_hessian":[1.6E2,1.53E2,7E0,8.3E1,7E1,1.6E1,6.7E1,4.5E1,2.5E1,5.9E1,8E0,1.2E1,3.3E1,1.4E1,1.1E1,4E1,1.9E1,1.5E1,1.8E1],"tree_param":{"num_deleted":"0","num_feature":"10","num_nodes":"19","size_leaf_vector":"1"}},{"base_weights":[1.2036271E1,-9.34806E1,7.610093E1,-1.3130391E2,1.8117622E2,-1.9024574E2,1.9095715E1,2.3358757E2,-6.3314754E1,-2.5486862E2,-1.2029355E1,1.1900993E2,5.806923E2,-6.3870277E1,-4.190356E1,2.4751306E0,1.1376155E2,4.3504597E1,1.7534619E2],"categories":[],"categories_nodes":[],"categories_segments":[],"categories_sizes":[],"default_left":[0,0,0,0,0,0,0,0,0,0,0,0,0,0,0,0,0,0,0],"id":7,"left_children":[1,-1,3,5,7,9,-1,11,-1,13,-1,15,17,-1,-1,-1,-1,-1,-1],"loss_changes":[4.5856075E6,0E0,2.8822488E6,6.0706575E5,2.329656E6,2.9010475E5,0E0,3.124262E6,0E0,2.8868625E4,0E0,2.9023865E6,1.9928125E6,0E0,0E0,0E0,0E0,0E0,0E0],"parents":[2147483647,0,0,2,2,3,3,4,4,5,5,7,7,9,9,11,11,12,12],"right_children":[2,-1,4,6,8,10,-1,12,-1,14,-1,16,18,-1,-1,-1,-1,-1,-1],"split_conditions":[3E0,-9.34806E1,4E0,6E1,1E1,5.35E1,1.9095715E1,1E0,-6.3314754E1,2.1E1,-1.2029355E1,9E0,1.4E1,-6.3870277E1,-4.190356E1,2.4751306E0,1.1376155E2,4.3504597E1,1.7534619E2],"split_indices":[8,0,7,8,7,0,0,2,0,8,0,7,8,0,0,0,0,0,0],"split_type":[0,0,0,0,0,0,0,0,0,0,0,0,0,0,0,0,0,0,0],"sum_hessian":[1.48E2,1.7E1,1.31E2,4.4E1,8.7E1,3.5E1,9E0,7.9E1,8E0,2.3E1,1.2E1,6E1,1.9E1,8E0,1.5E1,4.9E1,1.1E1,9E0,1E1],"tree_param":{"num_deleted":"0","num_feature":"10","num_nodes":"19","size_leaf_vector":"1"}},{"base_weights":[2.7338924E1,4.0626147E2,-1.4912413E2,6.295157E2,1.3864208E1,-2.8108334E2,-7.655027E1,4.7306424E2,2.1724512E2,-5.351837E1,5.8890747E1,-7.913122E1,-2.1088664E2,-1.3733577E2,1.0772517E2,1.3343517E2,4.420327E1,-1.2676068E2,-7.171126E1,1.9155443E1,-2.1907956E2,4.9235123E1,-1.0867974E1,-3.3061306E1,-1.3612755E1,-4.828937E0,1.0640293E1,-6.76848E1,-3.0969788E1],"categories":[],"categories_nodes":[],"categories_segments":[],"categories_sizes":[],"default_left":[0,0,0,0,0,0,0,0,0,0,0,0,0,0,0,0,0,0,0,0,0,0,0,0,0,0,0,0,0],"id":8,"left_children":[1,3,5,7,9,11,13,15,-1,-1,-1,-1,17,19,21,-1,-1,23,-1,25,27,-1,-1,-1,-1,-1,-1,-1,-1],"loss_changes":[1.0440674E7,4.3399375E6,1.00797575E6,1.949599E6,1.5161855E6,2.5233975E5,7.884854E5,1.1150915E6,0E0,0E0,0E0,0E0,2.783315E5,6.75387E5,4.0293462E5,0E0,0E0,3.0807031E4,0E0,2.8190785E4,2.3378575E5,0E0,0E0,0E0,0E0,0E0,0E0,0E0,0E0],"parents":[2147483647,0,0,1,1,2,2,3,3,4,4,5,5,6,6,7,7,12,12,13,13,14,14,17,17,19,19,20,20],"right_children":[2,4,6,8,10,12,14,16,-1,-1,-1,-1,18,20,22,-1,-1,24,-1,26,28,-1,-1,-1,-1,-1,-1,-1,-1],"split_conditions":[1.2219E1,1.0192307E0,1.4E1,6E1,1.4E1,3E0,9.6791446E-1,1E0,2.1724512E2,-5.351837E1,5.8890747E1,-7.913122E1,2.280151E1,1.275351E1,9.787234E-1,1.3343517E2,4.420327E1,1.599865E1,-7.171126E1,9.037433E-1,9.037433E-1,4.9235123E1,-1.0867974E1,-3.3061306E1,-1.3612755E1,-4.828937E0,1.0640293E1,-6.76848E1,-3.0969788E1],"split_indices":[9,6,8,8,8,8,5,5,0,0,0,0,9,9,6,0,0,9,0,5,5,0,0,0,0,0,0,0,0],"split_type":[0,0,0,0,0,0,0,0,0,0,0,0,0,0,0,0,0,0,0,0,0,0,0,0,0,0,0,0,0],"sum_hessian":[1.55E2,4.9E1,1.06E2,3.1E1,1.8E1,3.7E1,6.9E1,2.4E1,7E0,9E0,9E0,1.3E1,2.4E1,5.2E1,1.7E1,1.3E1,1.1E1,1.6E1,8E0,1.8E1,3.4E1,9E0,8E0,9E0,7E0,8E0,1E1,1.1E1,2.3E1],"tree_param":{"num_deleted":"0","num_feature":"10","num_nodes":"29","size_leaf_vector":"1"}},{"base_weights":[-4.436606E0,3.109555E2,-1.5116069E2,1.0918728E2,1.5434772E2,-1.18909515E2,-6.4343704E1,4.344757E1,9.7307304E1,-1.7935284E2,-4.8278255E1,2.626443E1,-1.4351293E1,-4.996556E1,-3.1514536E2,7.3792076E1,-1.16225E2,-1.9545286E1,-1.9930385E0,-4.580324E1,-8.987854E1,-1.1313442E1,4.3095642E1,-3.611515E1,-1.34112215E1],"categories":[],"categories_nodes":[],"categories_segments":[],"categories_sizes":[],"default_left":[0,0,0,0,0,0,0,0,0,0,0,0,0,0,0,0,0,0,0,0,0,0,0,0,0],"id":9,"left_children":[1,3,5,-1,7,9,-1,11,-1,13,15,-1,-1,17,19,21,23,-1,-1,-1,-1,-1,-1,-1,-1],"loss_changes":[7.2286895E6,1.7747135E6,5.6342025E5,0E0,1.114614E6,3.8159325E5,0E0,2.4456867E5,0E0,8.444451E5,3.5848228E5,0E0,0E0,4.8323254E4,2.1112675E5,2.9544703E5,8.006266E4,0E0,0E0,0E0,0E0,0E0,0E0,0E0,0E0],"parents":[2147483647,0,0,1,1,2,2,4,4,5,5,7,7,9,9,10,10,13,13,14,14,15,15,16,16],"right_children":[2,4,6,-1,8,10,-1,12,-1,14,16,-1,-1,18,20,22,24,-1,-1,-1,-1,-1,-1,-1,-1],"split_conditions":[1.2412E1,8.478153E0,2.756E1,1.0918728E2,1.137687E1,1.725954E1,-6.4343704E1,1.0059701E0,9.7307304E1,1.275351E1,2.2122E1,2.626443E1,-1.4351293E1,9.037433E-1,9.4678646E-1,8.274E1,9.0909094E-1,-1.9545286E1,-1.9930385E0,-4.580324E1,-8.987854E1,-1.1313442E1,4.3095642E1,-3.611515E1,-1.34112215E1],"split_indices":[9,9,9,0,9,9,0,5,0,9,9,0,0,5,5,1,5,0,0,0,0,0,0,0,0],"split_type":[0,0,0,0,0,0,0,0,0,0,0,0,0,0,0,0,0,0,0,0,0,0,0,0,0],"sum_hessian":[1.55E2,4.9E1,1.06E2,1.9E1,3E1,9E1,1.6E1,2.3E1,7E0,4.8E1,4.2E1,1.3E1,1E1,2.5E1,2.3E1,1.5E1,2.7E1,1.1E1,1.4E1,1.5E1,8E0,8E0,7E0,1.1E1,1.6E1],"tree_param":{"num_deleted":"0","num_feature":"10","num_nodes":"25","size_leaf_vector":"1"}},{"base_weights":[-7.032955E0,-3.7382193E2,4.170203E1,-4.600393E1,-1.0184795E2,-9.390089E1,2.030123E2,-2.324848E2,-5.7417397E1,3.293283E2,-1.16414505E2,-5.4739643E1,-3.5010307E1,-1.3321544E2,-1.35884495E1,1.1582009E2,5.525577E2,7.6607895E0,-4.998948E1,-2.2438211E1,-3.241172E1,-1.0377204E1,1.5405501E1,-9.613871E0,7.83947E1,1.365523E2,9.190529E1],"categories":[],"categories_nodes":[],"categories_segments":[],"categories_sizes":[],"default_left":[0,0,0,0,0,0,0,0,0,0,0,0,0,0,0,0,0,0,0,0,0,0,0,0,0,0,0],"id":10,"left_children":[1,3,5,-1,-1,7,9,11,13,15,17,-1,-1,19,21,23,25,-1,-1,-1,-1,-1,-1,-1,-1,-1,-1],"loss_changes":[2.9874045E6,3.1139725E5,3.2400612E6,0E0,0E0,3.9950638E5,2.750577E6,1.054575E4,2.1352467E5,2.2779405E6,4.1068038E5,0E0,0E0,3.4023438E3,1.467654E5,1.169926E6,9.76195E4,0E0,0E0,0E0,0E0,0E0,0E0,0E0,0E0,0E0,0E0],"parents":[2147483647,0,0,1,1,2,2,5,5,6,6,7,7,8,8,9,9,10,10,13,13,14,14,15,15,16,16],"right_children":[2,4,6,-1,-1,8,10,12,14,16,18,-1,-1,20,22,24,26,-1,-1,-1,-1,-1,-1,-1,-1,-1,-1],"split_conditions":[3E0,9.4678646E-1,9.6791446E-1,-4.600393E1,-1.0184795E2,8.983957E-1,1.0344827E0,2.1E1,2.1E1,2.1E1,5.082E1,-5.4739643E1,-3.5010307E1,9.3048126E-1,9.2743605E-1,1E0,5.082E1,7.6607895E0,-4.998948E1,-2.2438211E1,-3.241172E1,-1.0377204E1,1.5405501E1,-9.613871E0,7.83947E1,1.365523E2,9.190529E1],"split_indices":[8,5,5,0,0,5,6,8,8,8,0,0,0,5,5,2,0,0,0,0,0,0,0,0,0,0,0],"split_type":[0,0,0,0,0,0,0,0,0,0,0,0,0,0,0,0,0,0,0,0,0,0,0,0,0,0,0],"sum_hessian":[1.66E2,1.9E1,1.47E2,1E1,9E0,8E1,6.7E1,1.6E1,6.4E1,4.8E1,1.9E1,8E0,8E0,2.3E1,4.1E1,2.5E1,2.3E1,9E0,1E1,1.5E1,8E0,2.9E1,1.2E1,1.6E1,9E0,8E0,1.5E1],"tree_param":{"num_deleted":"0","num_feature":"10","num_nodes":"27","size_leaf_vector":"1"}},{"base_weights":[-1.960657E1,-3.2799286E2,3.1129581E1,-1.12646805E2,-2.007731E2,2.5245236E2,-7.806045E1,-4.9774426E1,-2.8851913E1,4.2633112E2,-3.5096565E1,-5.7629116E1,-4.354934E1,2.2172894E2,5.93149E2,-3.910104E1,-4.6989426E1,2.872032E0,7.790312E1,1.5935553E2,8.2715324E1,5.7335954E0,-1.5141998E1],"categories":[],"categories_nodes":[],"categories_segments":[],"categories_sizes":[],"default_left":[0,0,0,0,0,0,0,0,0,0,0,0,0,0,0,0,0,0,0,0,0,0,0],"id":11,"left_children":[1,3,5,-1,7,9,11,-1,-1,13,-1,15,-1,17,19,21,-1,-1,-1,-1,-1,-1,-1],"loss_changes":[2.503281E6,6.085085E5,3.3370988E6,0E0,2.0863312E4,3.4379312E6,2.5674894E5,0E0,0E0,1.033769E6,0E0,2.6257353E5,0E0,5.394259E5,4.45846E5,1.8638134E5,0E0,0E0,0E0,0E0,0E0,0E0,0E0],"parents":[2147483647,0,0,1,1,2,2,4,4,5,5,6,6,9,9,11,11,13,13,14,14,15,15],"right_children":[2,4,6,-1,8,10,12,-1,-1,14,-1,16,-1,18,20,22,-1,-1,-1,-1,-1,-1,-1],"split_conditions":[3E0,1.2219E1,1.2219E1,-1.12646805E2,1.909018E1,1.0786517E0,2.756E1,-4.9774426E1,-2.8851913E1,2.1E1,-3.5096565E1,1E0,-4.354934E1,1E0,8.478153E0,9.787234E-1,-4.6989426E1,2.872032E0,7.790312E1,1.5935553E2,8.2715324E1,5.7335954E0,-1.5141998E1],"split_indices":[8,9,9,0,9,6,9,0,0,8,0,2,0,2,9,6,0,0,0,0,0,0,0],"split_type":[0,0,0,0,0,0,0,0,0,0,0,0,0,0,0,0,0,0,0,0,0,0,0],"sum_hessian":[1.59E2,2.2E1,1.37E2,7E0,1.5E1,4.5E1,9.2E1,7E0,8E0,3.2E1,1.3E1,8.1E1,1.1E1,1.5E1,1.7E1,7.4E1,7E0,7E0,8E0,7E0,1E1,2.6E1,4.8E1],"tree_param":{"num_deleted":"0","num_feature":"10","num_nodes":"23","size_leaf_vector":"1"}},{"base_weights":[-5.4375634E0,-2.6842869E1,7.843688E1,-6.508683E0,-6.883154E1,-6.565969E1,8.198945E1,-1.3317618E2,-3.418418E1,6.416372E1,-7.9406136E-1,-3.7777367E1,-1.9426216E1,-1.629334E1,2.1653452E0,-2.0716528E1,1.3698753E1],"categories":[],"categories_nodes":[],"categories_segments":[],"categories_sizes":[],"default_left":[0,0,0,0,0,0,0,0,0,0,0,0,0,0,0,0,0],"id":12,"left_children":[1,3,-1,5,-1,7,9,11,13,-1,15,-1,-1,-1,-1,-1,-1],"loss_changes":[1.4327968E6,1.02844925E6,0E0,7.91584E5,0E0,1.8980394E5,1.1982822E6,4.642347E4,1.3375634E5,0E0,3.2901994E5,0E0,0E0,0E0,0E0,0E0,0E0],"parents":[2147483647,0,0,1,1,3,3,5,5,6,6,7,7,8,8,10,10],"right_children":[2,4,-1,6,-1,8,10,12,14,-1,16,-1,-1,-1,-1,-1,-1],"split_conditions":[1.0670391E0,1.0481013E0,7.843688E1,9.6791446E-1,-6.883154E1,9.037433E-1,9.9124247E-1,4E0,6E0,6.416372E1,5E0,-3.7777367E1,-1.9426216E1,-1.629334E1,2.1653452E0,-2.0716528E1,1.3698753E1],"split_indices":[5,5,0,5,0,5,5,7,7,0,7,0,0,0,0,0,0],"split_type":[0,0,0,0,0,0,0,0,0,0,0,0,0,0,0,0,0],"sum_hessian":[1.67E2,1.59E2,8E0,1.5E2,9E0,9E1,6E1,2.8E1,6.2E1,1.5E1,4.5E1,1E1,1.8E1,3E1,3.2E1,1.8E1,2.7E1],"tree_param":{"num_deleted":"0","num_feature":"10","num_nodes":"17","size_leaf_vector":"1"}},{"base_weights":[-1.0204524E1,1.1502638E2,-7.497837E1,2.5162085E2,-4.372508E1,-5.6803097E1,-3.6189747E1,9.916202E1,1.8603879E2,-1.2604908E1,-1.0123331E2,3.127781E2,2.7631242E0,1.0207655E2,-7.890384E1,-3.4653625E1,-4.9314285E1,2.8904856E1,8.31417E1,-8.495216E0,4.2026855E1,-4.967714E0,-2.927507E1,-1.1632861E0,-2.4292976E1],"categories":[],"categories_nodes":[],"categories_segments":[],"categories_sizes":[],"default_left":[0,0,0,0,0,0,0,0,0,0,0,0,0,0,0,0,0,0,0,0,0,0,0,0,0],"id":13,"left_children":[1,3,5,7,-1,9,-1,-1,11,13,15,17,-1,19,21,23,-1,-1,-1,-1,-1,-1,-1,-1,-1],"loss_changes":[1.25113E6,2.4302505E6,1.8951869E5,5.4679875E5,0E0,1.7125756E5,0E0,0E0,6.65327E5,3.4393784E5,4.1677147E5,2.6875638E5,0E0,2.6464788E5,1.021475E5,7.617994E4,0E0,0E0,0E0,0E0,0E0,0E0,0E0,0E0,0E0],"parents":[2147483647,0,0,1,1,2,2,3,3,5,5,8,8,9,9,10,10,11,11,13,13,14,14,15,15],"right_children":[2,4,6,8,-1,10,-1,-1,12,14,16,18,-1,20,22,24,-1,-1,-1,-1,-1,-1,-1,-1,-1],"split_conditions":[1.2219E1,1.0786517E0,2.756E1,8.5393256E-1,-4.372508E1,5E0,-3.6189747E1,9.916202E1,1.003308E1,9.787234E-1,1.356453E1,9.255319E-1,2.7631242E0,8.707865E-1,1.011236E0,9.283582E-1,-4.9314285E1,2.8904856E1,8.31417E1,-8.495216E0,4.2026855E1,-4.967714E0,-2.927507E1,-1.1632861E0,-2.4292976E1],"split_indices":[9,6,9,6,0,7,0,0,9,6,9,6,0,6,6,5,0,0,0,0,0,0,0,0,0],"split_type":[0,0,0,0,0,0,0,0,0,0,0,0,0,0,0,0,0,0,0,0,0,0,0,0,0],"sum_hessian":[1.53E2,5.2E1,1.01E2,3.7E1,1.5E1,8.7E1,1.4E1,7E0,3E1,4.4E1,4.3E1,1.7E1,1.3E1,1.6E1,2.8E1,3E1,1.3E1,7E0,1E1,7E0,9E0,1.6E1,1.2E1,2.3E1,7E0],"tree_param":{"num_deleted":"0","num_feature":"10","num_nodes":"25","size_leaf_vector":"1"}},{"base_weights":[-7.726496E0,2.6357407E2,-4.688607E1,-6.0600524E0,1.2043976E2,-2.5718634E2,-9.298759E0,-8.817812E1,-2.5934788E1,5.5109406E1,-4.892629E1,1.4915897E2,-4.034124E1,-1.5380354E2,-1.9222963E1,3.7511353E1,1.3820137E1,-3.3752754E1,2.024776E1,-1.6933504E1,-4.2441814E1,2.0539274E1,-1.6470879E1],"categories":[],"categories_nodes":[],"categories_segments":[],"categories_sizes":[],"default_left":[0,0,0,0,0,0,0,0,0,0,0,0,0,0,0,0,0,0,0,0,0,0,0],"id":14,"left_children":[1,3,5,-1,-1,7,9,-1,-1,11,13,15,17,19,21,-1,-1,-1,-1,-1,-1,-1,-1],"loss_changes":[1.7348795E6,2.0609184E6,1.1257641E6,0E0,0E0,4.716675E5,3.1198188E5,0E0,0E0,4.2194275E5,2.3373539E5,6.477175E4,4.3934797E5,5.624925E4,4.6381228E5,0E0,0E0,0E0,0E0,0E0,0E0,0E0,0E0],"parents":[2147483647,0,0,1,1,2,2,5,5,6,6,9,9,10,10,11,11,12,12,13,13,14,14],"right_children":[2,4,6,-1,-1,8,10,-1,-1,12,14,16,18,20,22,-1,-1,-1,-1,-1,-1,-1,-1],"split_conditions":[8.478153E0,2.1E1,3E0,-6.0600524E0,1.2043976E2,1.261396E1,1.275351E1,-8.817812E1,-2.5934788E1,1.011236E0,1.599865E1,1.2219E1,1.2115384E0,1.4265E1,9.787234E-1,3.7511353E1,1.3820137E1,-3.3752754E1,2.024776E1,-1.6933504E1,-4.2441814E1,2.0539274E1,-1.6470879E1],"split_indices":[9,8,8,0,0,9,9,0,0,6,9,9,6,9,6,0,0,0,0,0,0,0,0],"split_type":[0,0,0,0,0,0,0,0,0,0,0,0,0,0,0,0,0,0,0,0,0,0,0],"sum_hessian":[1.62E2,2E1,1.42E2,1.1E1,9E0,2.1E1,1.21E2,8E0,1.3E1,4.6E1,7.5E1,2.3E1,2.3E1,1.6E1,5.9E1,1.5E1,8E0,1.2E1,1.1E1,8E0,8E0,2E1,3.9E1],"tree_param":{"num_deleted":"0","num_feature":"10","num_nodes":"23","size_leaf_vector":"1"}},{"base_weights":[1.7538483E1,-8.5709496E1,7.3228546E1,-3.740687E1,-1.8578253E2,2.4328246E2,1.5666301E0,-1.27753975E2,2.0798777E1,-1.9201618E1,-5.6694637E1,3.3704282E2,7.6905837E0,1.5117167E1,-1.8507627E1,-6.5402794E0,-4.0568172E1,1.5339042E1,-7.2176147E0,4.870846E1,9.8010704E1,-4.391011E1,4.2878548E1,9.98821E0,-3.2869076E1,-1.8509798E0,3.3190758E1],"categories":[],"categories_nodes":[],"categories_segments":[],"categories_sizes":[],"default_left":[0,0,0,0,0,0,0,0,0,0,0,0,0,0,0,0,0,0,0,0,0,0,0,0,0,0,0],"id":15,"left_children":[1,3,5,7,9,11,13,15,17,-1,-1,19,-1,21,-1,-1,-1,-1,-1,-1,-1,23,25,-1,-1,-1,-1],"loss_changes":[9.444473E5,2.7425653E5,1.2988402E6,2.0983928E5,1.4679488E5,5.9909825E5,9.724221E4,1.0736045E5,7.988305E4,0E0,0E0,2.37413E5,0E0,1.1026569E5,0E0,0E0,0E0,0E0,0E0,0E0,0E0,2.490691E5,2.9350647E5,0E0,0E0,0E0,0E0],"parents":[2147483647,0,0,1,1,2,2,3,3,4,4,5,5,6,6,7,7,8,8,11,11,13,13,21,21,22,22],"right_children":[2,4,6,8,10,12,14,16,18,-1,-1,20,-1,22,-1,-1,-1,-1,-1,-1,-1,24,26,-1,-1,-1,-1],"split_conditions":[1.4E1,1.0344827E0,1.2219E1,3E0,9.3582886E-1,1.0786517E0,2.756E1,9.6629214E-1,1.2608E1,-1.9201618E1,-5.6694637E1,6E1,7.6905837E0,9.230769E-1,-1.8507627E1,-6.5402794E0,-4.0568172E1,1.5339042E1,-7.2176147E0,4.870846E1,9.8010704E1,4.36E1,9.364202E-1,9.98821E0,-3.2869076E1,-1.8509798E0,3.3190758E1],"split_indices":[8,6,9,8,5,6,9,6,9,0,0,8,0,6,0,0,0,0,0,0,0,0,5,0,0,0,0],"split_type":[0,0,0,0,0,0,0,0,0,0,0,0,0,0,0,0,0,0,0,0,0,0,0,0,0,0,0],"sum_hessian":[1.63E2,5.7E1,1.06E2,3.9E1,1.8E1,3.1E1,7.5E1,1.5E1,2.4E1,1E1,8E0,2.1E1,1E1,6.6E1,9E0,7E0,8E0,1.2E1,1.2E1,1.4E1,7E0,2.1E1,4.5E1,1.2E1,9E0,3.2E1,1.3E1],"tree_param":{"num_deleted":"0","num_feature":"10","num_nodes":"27","size_leaf_vector":"1"}},{"base_weights":[-2.8498626E0,-1.01651726E2,5.5297718E1,-1.9859239E2,-4.833647E1,2.0609064E1,2.1621272E2,-5.547112E1,-2.1717619E1,-2.668586E1,-2.6908283E1,-1.5466263E1,1.5825113E1,1.583035E1,7.806146E1,-9.781118E0,-1.7910385E1,6.747517E1,-5.388053E1,-7.8279634E0,3.0990882E0,-2.815481E0,2.8864033E1,-8.3825445E0,-1.59468155E1],"categories":[],"categories_nodes":[],"categories_segments":[],"categories_sizes":[],"default_left":[0,0,0,0,0,0,0,0,0,0,0,0,0,0,0,0,0,0,0,0,0,0,0,0,0],"id":16,"left_children":[1,3,5,7,9,11,13,-1,-1,15,-1,17,-1,-1,-1,-1,19,21,23,-1,-1,-1,-1,-1,-1],"loss_changes":[9.0879875E5,2.9710956E5,5.532862E5,1.2796344E5,6.988842E4,1.7510302E5,4.014277E5,0E0,0E0,5.636092E3,0E0,1.6658588E5,0E0,0E0,0E0,0E0,1.7100697E4,1.0524965E5,9.009875E3,0E0,0E0,0E0,0E0,0E0,0E0],"parents":[2147483647,0,0,1,1,2,2,3,3,4,4,5,5,6,6,9,9,11,11,16,16,17,17,18,18],"right_children":[2,4,6,8,10,12,14,-1,-1,16,-1,18,-1,-1,-1,-1,20,22,24,-1,-1,-1,-1,-1,-1],"split_conditions":[1.4E1,3E0,1E0,5.11E1,1E0,6E1,2.1E1,-5.547112E1,-2.1717619E1,4.4E1,-2.6908283E1,1E0,1.5825113E1,1.583035E1,7.806146E1,-9.781118E0,5.052E1,2.1E1,4.36E1,-7.8279634E0,3.0990882E0,-2.815481E0,2.8864033E1,-8.3825445E0,-1.59468155E1],"split_indices":[8,8,2,1,4,8,8,0,0,1,0,3,0,0,0,0,0,8,0,0,0,0,0,0,0],"split_type":[0,0,0,0,0,0,0,0,0,0,0,0,0,0,0,0,0,0,0,0,0,0,0,0,0],"sum_hessian":[1.57E2,5.8E1,9.9E1,2E1,3.8E1,8.2E1,1.7E1,1E1,1E1,3.1E1,7E0,5.1E1,3.1E1,1E1,7E0,8E0,2.3E1,1.6E1,3.5E1,1.4E1,9E0,8E0,8E0,2.5E1,1E1],"tree_param":{"num_deleted":"0","num_feature":"10","num_nodes":"25","size_leaf_vector":"1"}},{"base_weights":[-4.3809495E0,-1.4787701E2,1.7373213E1,-5.820134E0,-4.6266308E1,5.634506E1,-6.3637604E1,1.7084964E2,-1.9623135E0,4.6440896E-1,-7.8523766E1,4.3213665E1,2.923103E2,2.3428648E1,-1.5245757E1,-5.7557346E1,6.782953E1,2.9877653E1,-8.708417E0,3.3952797E1,7.8892586E1,-1.24996E0,1.1005316E1,-1.7413977E1,-4.400529E0,-9.413021E0,4.094231E1],"categories":[],"categories_nodes":[],"categories_segments":[],"categories_sizes":[],"default_left":[0,0,0,0,0,0,0,0,0,0,0,0,0,0,0,0,0,0,0,0,0,0,0,0,0,0,0],"id":17,"left_children":[1,3,5,-1,-1,7,9,11,13,15,-1,17,19,21,-1,23,25,-1,-1,-1,-1,-1,-1,-1,-1,-1,-1],"loss_changes":[5.1224122E5,2.1006916E5,4.5235975E5,0E0,0E0,6.4514725E5,9.828269E5,4.978105E5,1.2288759E5,1.5712469E5,0E0,1.5680967E5,1.676265E5,4.578233E4,0E0,2.1515617E4,2.9830325E5,0E0,0E0,0E0,0E0,0E0,0E0,0E0,0E0,0E0,0E0],"parents":[2147483647,0,0,1,1,2,2,5,5,6,6,7,7,8,8,9,9,11,11,12,12,13,13,15,15,16,16],"right_children":[2,4,6,-1,-1,8,10,12,14,16,-1,18,20,22,-1,24,26,-1,-1,-1,-1,-1,-1,-1,-1,-1,-1],"split_conditions":[3E0,5E0,1.0786517E0,-5.820134E0,-4.6266308E1,6.5E1,5.35E1,2.1E1,4.36E1,4.36E1,-7.8523766E1,5.082E1,9.0425533E-1,4E0,-1.5245757E1,1.2115384E0,2.1E1,2.9877653E1,-8.708417E0,3.3952797E1,7.8892586E1,-1.24996E0,1.1005316E1,-1.7413977E1,-4.400529E0,-9.413021E0,4.094231E1],"split_indices":[8,7,6,0,0,1,0,8,0,0,0,0,6,7,0,6,8,0,0,0,0,0,0,0,0,0,0],"split_type":[0,0,0,0,0,0,0,0,0,0,0,0,0,0,0,0,0,0,0,0,0,0,0,0,0,0,0],"sum_hessian":[1.63E2,2.1E1,1.42E2,9E0,1.2E1,9.6E1,4.6E1,3.2E1,6.4E1,3.9E1,7E0,1.6E1,1.6E1,4.8E1,1.6E1,2.1E1,1.8E1,7E0,9E0,8E0,8E0,2.5E1,2.3E1,1.1E1,1E1,1E1,8E0],"tree_param":{"num_deleted":"0","num_feature":"10","num_nodes":"27","size_leaf_vector":"1"}},{"base_weights":[-6.4354725E0,5.325594E1,-4.589447E1,1.6537214E1,1.1780579E2,-2.6499027E1,-1.147956E2,7.8804726E1,-4.0424156E1,2.9445927E1,1.7488523E1,-6.681536E1,1.4240164E1,-4.2533623E1,-2.0850475E0,4.882619E0,3.255178E1,-2.175755E1,1.4101199E1,-4.2444863E0,-8.768965E1,-2.801588E0,1.4380399E1,-1.4229242E1,-1.98296E1,2.5163958E0,-8.248786E0],"categories":[],"categories_nodes":[],"categories_segments":[],"categories_sizes":[],"default_left":[0,0,0,0,0,0,0,0,0,0,0,0,0,0,0,0,0,0,0,0,0,0,0,0,0,0,0],"id":18,"left_children":[1,3,5,7,9,11,13,15,17,-1,-1,19,21,-1,-1,-1,-1,-1,-1,-1,23,25,-1,-1,-1,-1,-1],"loss_changes":[3.703164E5,1.472049E5,1.2459522E5,1.4591317E5,1.2466375E4,1.23098016E5,2.0909847E5,8.711748E4,1.684075E5,0E0,0E0,3.466808E4,3.706883E4,0E0,0E0,0E0,0E0,0E0,0E0,0E0,6.203281E2,1.7816213E4,0E0,0E0,0E0,0E0,0E0],"parents":[2147483647,0,0,1,1,2,2,3,3,4,4,5,5,6,6,7,7,8,8,11,11,12,12,20,20,21,21],"right_children":[2,4,6,8,10,12,14,16,18,-1,-1,20,22,-1,-1,-1,-1,-1,-1,-1,24,26,-1,-1,-1,-1,-1],"split_conditions":[1.2608E1,1E0,9.890531E-1,9.73262E-1,8.032423E0,9.0909094E-1,1.9065E1,9.144385E-1,9E0,2.9445927E1,1.7488523E1,1.515134E1,9.4678646E-1,-4.2533623E1,-2.0850475E0,4.882619E0,3.255178E1,-2.175755E1,1.4101199E1,-4.2444863E0,8.6316514E-1,9.3048126E-1,1.4380399E1,-1.4229242E1,-1.98296E1,2.5163958E0,-8.248786E0],"split_indices":[9,2,5,5,9,5,9,5,7,0,0,9,5,0,0,0,0,0,0,0,5,5,0,0,0,0,0],"split_type":[0,0,0,0,0,0,0,0,0,0,0,0,0,0,0,0,0,0,0,0,0,0,0,0,0,0,0],"sum_hessian":[1.56E2,6.2E1,9.4E1,4E1,2.2E1,7.4E1,2E1,1.9E1,2.1E1,1E1,1.2E1,3.7E1,3.7E1,1E1,1E1,1.2E1,7E0,1.3E1,8E0,1.2E1,2.5E1,2.9E1,8E0,1.2E1,1.3E1,2.1E1,8E0],"tree_param":{"num_deleted":"0","num_feature":"10","num_nodes":"27","size_leaf_vector":"1"}},{"base_weights":[9.678525E0,3.9931614E1,-6.798461E1,-1.0280185E1,9.5623886E1,-1.9700829E1,-1.5646692E2,2.4579866E1,-3.6396416E1,2.2087288E2,3.3875107E1,-1.1630498E1,4.4894624E0,-2.3075739E1,-3.7040497E1,4.7634632E1,-4.3272142E0,-1.5764018E1,-5.8454056E0,6.507125E1,2.4870472E1,-4.3672787E1,1.1466197E2,1.4222812E1,5.213918E0,-1.24196615E1,1.1326503E1,2.2305873E-1,7.0448E1],"categories":[],"categories_nodes":[],"categories_segments":[],"categories_sizes":[],"default_left":[0,0,0,0,0,0,0,0,0,0,0,0,0,0,0,0,0,0,0,0,0,0,0,0,0,0,0,0,0],"id":19,"left_children":[1,3,5,7,9,11,13,15,17,19,21,-1,-1,-1,-1,23,-1,-1,25,-1,-1,-1,27,-1,-1,-1,-1,-1,-1],"loss_changes":[3.484224E5,2.9868706E5,1.7587652E5,5.2066156E4,3.8684975E5,4.55136E4,4.4170625E3,2.6829617E4,4.1975957E4,1.4313225E5,7.200878E5,0E0,0E0,0E0,0E0,7.2928086E3,0E0,0E0,7.099552E4,0E0,0E0,0E0,7.173311E5,0E0,0E0,0E0,0E0,0E0,0E0],"parents":[2147483647,0,0,1,1,2,2,3,3,4,4,5,5,6,6,7,7,8,8,9,9,10,10,15,15,18,18,22,22],"right_children":[2,4,6,8,10,12,14,16,18,20,22,-1,-1,-1,-1,24,-1,-1,26,-1,-1,-1,28,-1,-1,-1,-1,-1,-1],"split_conditions":[1.0786517E0,9.786096E-1,9.3048126E-1,8.707865E-1,5.082E1,6E0,1.1235955E0,4.36E1,1.4E1,9.255319E-1,9.230769E-1,-1.1630498E1,4.4894624E0,-2.3075739E1,-3.7040497E1,8.269231E-1,-4.3272142E0,-1.5764018E1,4E0,6.507125E1,2.4870472E1,-4.3672787E1,5.4E1,1.4222812E1,5.213918E0,-1.24196615E1,1.1326503E1,2.2305873E-1,7.0448E1],"split_indices":[6,5,5,6,0,7,6,0,8,6,6,0,0,0,0,6,0,0,7,0,0,0,0,0,0,0,0,0,0],"split_type":[0,0,0,0,0,0,0,0,0,0,0,0,0,0,0,0,0,0,0,0,0,0,0,0,0,0,0,0,0],"sum_hessian":[1.47E2,1.06E2,4.1E1,5.6E1,5E1,2.7E1,1.4E1,2.4E1,3.2E1,1.6E1,3.4E1,1.4E1,1.3E1,7E0,7E0,1.6E1,8E0,1.3E1,1.9E1,7E0,9E0,8E0,2.6E1,7E0,9E0,1E1,9E0,1.8E1,8E0],"tree_param":{"num_deleted":"0","num_feature":"10","num_nodes":"29","size_leaf_vector":"1"}},{"base_weights":[7.921485E0,6.374874E1,-2.126514E1,1.5592987E2,2.3115168E1,-3.872619E1,3.0789373E1,4.94681E1,5.63071E0,-5.4546024E1,3.365623E1,-1.9551235E1,-3.2821278E1,-1.7659431E1,-4.174029E0,-2.4620024E1,-7.616696E0,-5.9576354E0,1.3292785E1],"categories":[],"categories_nodes":[],"categories_segments":[],"categories_sizes":[],"default_left":[0,0,0,0,0,0,0,0,0,0,0,0,0,0,0,0,0,0,0],"id":20,"left_children":[1,3,5,7,9,11,-1,-1,-1,13,-1,15,-1,-1,-1,-1,17,-1,-1],"loss_changes":[2.5923767E5,2.023498E5,3.2358878E5,1.8971175E5,4.4067466E5,2.2791256E5,0E0,0E0,0E0,2.7991273E4,0E0,1.0275099E5,0E0,0E0,0E0,0E0,1.2535917E5,0E0,0E0],"parents":[2147483647,0,0,1,1,2,2,3,3,4,4,5,5,9,9,11,11,16,16],"right_children":[2,4,6,8,10,12,-1,-1,-1,14,-1,16,-1,-1,-1,-1,18,-1,-1],"split_conditions":[1E0,4.36E1,9E0,8.5393256E-1,5.4E1,1.0059701E0,3.0789373E1,4.94681E1,5.63071E0,9.230769E-1,3.365623E1,2.85E1,-3.2821278E1,-1.7659431E1,-4.174029E0,-2.4620024E1,9.3582886E-1,-5.9576354E0,1.3292785E1],"split_indices":[6,0,7,6,0,5,0,0,0,6,0,0,0,0,0,0,5,0,0],"split_type":[0,0,0,0,0,0,0,0,0,0,0,0,0,0,0,0,0,0,0],"sum_hessian":[1.58E2,5.4E1,1.04E2,1.6E1,3.8E1,9.5E1,9E0,9E0,7E0,2.5E1,1.3E1,8.3E1,1.2E1,1.2E1,1.3E1,8E0,7.5E1,5.8E1,1.7E1],"tree_param":{"num_deleted":"0","num_feature":"10","num_nodes":"19","size_leaf_vector":"1"}},{"base_weights":[-1.723515E1,1.580996E-1,-5.0634636E1,1.032775E2,-1.8418776E1,-2.2519732E1,-4.306532E1,1.2444478E1,2.8316221E1,5.0780754E0,-7.776234E1,-4.9586067E1,1.4902531E1,-4.005358E1,2.843858E1,-4.7693916E1,-5.7150416E0,-1.1761358E1,-6.9241967E0,5.7769866E0,7.5308913E-1,-3.6226425E0,-1.3269394E1,7.5964675E0,-2.1665514E0,-1.8857222E1,1.4797412E1],"categories":[],"categories_nodes":[],"categories_segments":[],"categories_sizes":[],"default_left":[0,0,0,0,0,0,0,0,0,0,0,0,0,0,0,0,0,0,0,0,0,0,0,0,0,0,0],"id":21,"left_children":[1,3,5,7,9,11,-1,-1,-1,13,15,17,19,21,23,-1,25,-1,-1,-1,-1,-1,-1,-1,-1,-1,-1],"loss_changes":[8.923497E4,1.9576995E5,2.4064423E5,1.9246234E4,1.2099082E5,4.663086E4,0E0,0E0,0E0,6.668251E4,2.8401394E5,2.4489297E3,2.986916E3,1.1739695E4,1.5838395E4,0E0,1.2842925E5,0E0,0E0,0E0,0E0,0E0,0E0,0E0,0E0,0E0,0E0],"parents":[2147483647,0,0,1,1,2,2,3,3,4,4,5,5,9,9,10,10,11,11,12,12,13,13,14,14,16,16],"right_children":[2,4,6,8,10,12,-1,-1,-1,14,16,18,20,22,24,-1,26,-1,-1,-1,-1,-1,-1,-1,-1,-1,-1],"split_conditions":[1.0192307E0,1.003308E1,1.0189873E0,9.0425533E-1,9.890531E-1,6E0,-4.306532E1,1.2444478E1,2.8316221E1,9.037433E-1,9.230769E-1,1.2115384E0,1.25E0,1.515134E1,2.3961E1,-4.7693916E1,1.0179105E0,-1.1761358E1,-6.9241967E0,5.7769866E0,7.5308913E-1,-3.6226425E0,-1.3269394E1,7.5964675E0,-2.1665514E0,-1.8857222E1,1.4797412E1],"split_indices":[6,9,5,6,5,7,0,0,0,5,6,6,6,9,9,0,5,0,0,0,0,0,0,0,0,0,0],"split_type":[0,0,0,0,0,0,0,0,0,0,0,0,0,0,0,0,0,0,0,0,0,0,0,0,0,0,0],"sum_hessian":[1.53E2,1.01E2,5.2E1,1.5E1,8.6E1,4.5E1,7E0,8E0,7E0,6.2E1,2.4E1,2.6E1,1.9E1,2.1E1,4.1E1,7E0,1.7E1,1.5E1,1.1E1,8E0,1.1E1,1.2E1,9E0,3.3E1,8E0,8E0,9E0],"tree_param":{"num_deleted":"0","num_feature":"10","num_nodes":"27","size_leaf_vector":"1"}},{"base_weights":[-3.5038936E0,4.3652233E1,-2.0245369E1,7.7896886E0,1.0228423E2,-5.460076E0,-5.3150753E1,5.198104E1,-1.903263E1,2.8142912E1,1.1155768E1,-3.2420563E1,1.3715428E1,-2.4721197E1,-1.5576806E1,-8.80953E-1,1.9848904E1,2.3652475E1,-2.1535675E1,7.589668E1,-2.2663525E1,-6.7217E0,6.689356E-2,-2.5782516E0,1.34089155E1,3.0943928E1,-1.6442785E0,8.176962E0,-8.878716E0],"categories":[],"categories_nodes":[],"categories_segments":[],"categories_sizes":[],"default_left":[0,0,0,0,0,0,0,0,0,0,0,0,0,0,0,0,0,0,0,0,0,0,0,0,0,0,0,0,0],"id":22,"left_children":[1,3,5,7,9,11,13,15,-1,-1,-1,17,19,-1,21,-1,-1,23,-1,25,27,-1,-1,-1,-1,-1,-1,-1,-1],"loss_changes":[1.1626554E5,8.068587E4,5.266149E4,1.14888805E5,2.1384047E4,3.9350555E4,8.77934E4,4.716609E4,0E0,0E0,0E0,1.3487805E5,1.0192121E5,0E0,6.490847E3,0E0,0E0,3.0012762E4,0E0,1.1082842E5,4.0583008E4,0E0,0E0,0E0,0E0,0E0,0E0,0E0,0E0],"parents":[2147483647,0,0,1,1,2,2,3,3,4,4,5,5,6,6,7,7,11,11,12,12,14,14,17,17,19,19,20,20],"right_children":[2,4,6,8,10,12,14,16,-1,-1,-1,18,20,-1,22,-1,-1,24,-1,26,28,-1,-1,-1,-1,-1,-1,-1,-1],"split_conditions":[1.129601E1,1E0,1.0786517E0,1.0786517E0,1.011236E0,9.230769E-1,1.2115384E0,5.35E1,-1.903263E1,2.8142912E1,1.1155768E1,1.356453E1,1.909018E1,-2.4721197E1,4.36E1,-8.80953E-1,1.9848904E1,8.269231E-1,-2.1535675E1,4E0,9.6276593E-1,-6.7217E0,6.689356E-2,-2.5782516E0,1.34089155E1,3.0943928E1,-1.6442785E0,8.176962E0,-8.878716E0],"split_indices":[9,2,6,6,6,6,6,0,0,0,0,9,9,0,0,0,0,6,0,7,6,0,0,0,0,0,0,0,0],"split_type":[0,0,0,0,0,0,0,0,0,0,0,0,0,0,0,0,0,0,0,0,0,0,0,0,0,0,0,0,0],"sum_hessian":[1.46E2,3.8E1,1.08E2,2.4E1,1.4E1,7.5E1,3.3E1,1.7E1,7E0,7E0,7E0,3.1E1,4.4E1,1.1E1,2.2E1,8E0,9E0,1.8E1,1.3E1,1.6E1,2.8E1,1E1,1.2E1,1E1,8E0,8E0,8E0,7E0,2.1E1],"tree_param":{"num_deleted":"0","num_feature":"10","num_nodes":"29","size_leaf_vector":"1"}},{"base_weights":[2.5723133E0,-6.101697E1,4.3046436E1,-1.2076389E2,-2.9012003E1,8.881642E1,-6.3011355E0,-4.5455254E1,-8.462862E0,2.0875969E1,-1.720211E1,4.491857E1,4.551067E1,-4.0829815E1,4.075211E1,1.570551E1,-1.9984725E0,6.4188232E0,2.8944181E1,1.7364928E0,-1.6376331E1,3.686823E0,1.2569578E1,1.3831988E1,-1.045775E1],"categories":[],"categories_nodes":[],"categories_segments":[],"categories_sizes":[],"default_left":[0,0,0,0,0,0,0,0,0,0,0,0,0,0,0,0,0,0,0,0,0,0,0,0,0],"id":23,"left_children":[1,3,5,7,9,11,13,-1,-1,15,-1,-1,17,19,21,-1,-1,23,-1,-1,-1,-1,-1,-1,-1],"loss_changes":[3.943257E5,1.1186486E5,2.117443E5,1.6636031E5,1.1368159E5,2.7963034E5,7.508404E4,0E0,0E0,3.8910344E4,0E0,0E0,1.4526714E5,5.449292E4,8.970289E3,0E0,0E0,1.0383103E5,0E0,0E0,0E0,0E0,0E0,0E0,0E0],"parents":[2147483647,0,0,1,1,2,2,3,3,4,4,5,5,6,6,9,9,12,12,13,13,14,14,17,17],"right_children":[2,4,6,8,10,12,14,-1,-1,16,-1,-1,18,20,22,-1,-1,24,-1,-1,-1,-1,-1,-1,-1],"split_conditions":[1.4E1,3E0,8.274E1,5.11E1,5.052E1,5.082E1,6E1,-4.5455254E1,-8.462862E0,9.92E1,-1.720211E1,4.491857E1,6E1,4E0,4E0,1.570551E1,-1.9984725E0,5.35E1,2.8944181E1,1.7364928E0,-1.6376331E1,3.686823E0,1.2569578E1,1.3831988E1,-1.045775E1],"split_indices":[8,8,1,1,0,0,8,0,0,1,0,0,8,7,7,0,0,0,0,0,0,0,0,0,0],"split_type":[0,0,0,0,0,0,0,0,0,0,0,0,0,0,0,0,0,0,0,0,0,0,0,0,0],"sum_hessian":[1.52E2,5.9E1,9.3E1,2E1,3.9E1,4.8E1,4.5E1,8E0,1.2E1,2.1E1,1.8E1,1.1E1,3.7E1,2.6E1,1.9E1,7E0,1.4E1,2.7E1,1E1,1.2E1,1.4E1,1E1,9E0,1.3E1,1.4E1],"tree_param":{"num_deleted":"0","num_feature":"10","num_nodes":"25","size_leaf_vector":"1"}},{"base_weights":[3.7470245E0,-2.3682783E0,2.6213583E1,1.3659484E1,-5.0739475E1,-3.413879E0,7.342907E1,-3.6007645E1,-1.9662354E1,5.199034E0,-1.2913436E1,4.0412354E1,2.1303259E1,6.589883E1,-2.3087336E1,-2.8048956E-1,1.2420066E1,8.604533E0,1.4376453E0,3.9640808E0,2.4992714E1],"categories":[],"categories_nodes":[],"categories_segments":[],"categories_sizes":[],"default_left":[0,0,0,0,0,0,0,0,0,0,0,0,0,0,0,0,0,0,0,0,0],"id":24,"left_children":[1,3,-1,5,7,9,11,-1,13,15,-1,-1,17,19,-1,-1,-1,-1,-1,-1,-1],"loss_changes":[1.2912337E5,1.2337558E5,0E0,1.2219837E5,1.5699803E5,4.950129E4,1.7577245E5,0E0,2.7170706E5,3.1079525E4,0E0,0E0,5.8232207E3,4.6414242E4,0E0,0E0,0E0,0E0,0E0,0E0,0E0],"parents":[2147483647,0,0,1,1,3,3,4,4,5,5,6,6,8,8,9,9,12,12,13,13],"right_children":[2,4,-1,6,8,10,12,-1,14,16,-1,-1,18,20,-1,-1,-1,-1,-1,-1,-1],"split_conditions":[1.0670391E0,1E0,2.6213583E1,9.786096E-1,9.230769E-1,9.364202E-1,8.5393256E-1,-3.6007645E1,1E0,9E0,-1.2913436E1,4.0412354E1,1.011236E0,9.6629214E-1,-2.3087336E1,-2.8048956E-1,1.2420066E1,8.604533E0,1.4376453E0,3.9640808E0,2.4992714E1],"split_indices":[5,5,0,5,6,5,6,0,6,7,0,0,6,6,0,0,0,0,0,0,0],"split_type":[0,0,0,0,0,0,0,0,0,0,0,0,0,0,0,0,0,0,0,0,0],"sum_hessian":[1.65E2,1.58E2,7E0,1.19E2,3.9E1,9.3E1,2.6E1,7E0,3.2E1,8.2E1,1.1E1,7E0,1.9E1,1.7E1,1.5E1,7.4E1,8E0,7E0,1.2E1,1E1,7E0],"tree_param":{"num_deleted":"0","num_feature":"10","num_nodes":"21","size_leaf_vector":"1"}},{"base_weights":[3.224207E0,-9.908718E1,2.2933655E1,-4.4030743E1,1.709389E0,1.007806E2,-8.321348E0,3.9969524E1,4.75809E1,8.678585E0,-3.4009968E1,-2.5601091E1,4.265972E1,-1.9871332E1,6.1725517E1,-1.5691658E1,-2.1908169E1,-1.5145293E1,2.3573942E0,4.425883E-1,-2.0862997E1,6.572597E0,1.9269987E1,-9.359741E-2,-1.0162623E1],"categories":[],"categories_nodes":[],"categories_segments":[],"categories_sizes":[],"default_left":[0,0,0,0,0,0,0,0,0,0,0,0,0,0,0,0,0,0,0,0,0,0,0,0,0],"id":25,"left_children":[1,3,5,-1,-1,7,9,-1,11,13,15,17,-1,19,21,-1,23,-1,-1,-1,-1,-1,-1,-1,-1],"loss_changes":[3.07065E5,3.2168894E5,3.1096756E5,0E0,0E0,1.8718888E5,4.0179258E4,0E0,3.0161416E5,8.4941336E4,1.8655984E4,3.3519547E4,0E0,6.839299E4,1.7687414E4,0E0,1.832966E4,0E0,0E0,0E0,0E0,0E0,0E0,0E0,0E0],"parents":[2147483647,0,0,1,1,2,2,5,5,6,6,8,8,9,9,10,10,11,11,13,13,14,14,16,16],"right_children":[2,4,6,-1,-1,8,10,-1,12,14,16,18,-1,20,22,-1,24,-1,-1,-1,-1,-1,-1,-1,-1],"split_conditions":[5E0,1.2219E1,1.2219E1,-4.4030743E1,1.709389E0,5.11E1,2.2122E1,3.9969524E1,6E1,1.725954E1,2.3584E1,6.5E1,4.265972E1,1.515134E1,6E1,-1.5691658E1,2.756E1,-1.5145293E1,2.3573942E0,4.425883E-1,-2.0862997E1,6.572597E0,1.9269987E1,-9.359741E-2,-1.0162623E1],"split_indices":[8,9,9,0,0,1,9,0,8,9,9,1,0,9,8,0,9,0,0,0,0,0,0,0,0],"split_type":[0,0,0,0,0,0,0,0,0,0,0,0,0,0,0,0,0,0,0,0,0,0,0,0,0],"sum_hessian":[1.51E2,2.4E1,1.27E2,1.1E1,1.3E1,3.6E1,9.1E1,1.2E1,2.4E1,5.5E1,3.6E1,1.7E1,7E0,3.6E1,1.9E1,7E0,2.9E1,7E0,1E1,2.9E1,7E0,1.1E1,8E0,1.7E1,1.2E1],"tree_param":{"num_deleted":"0","num_feature":"10","num_nodes":"25","size_leaf_vector":"1"}},{"base_weights":[7.357493E0,1.8831179E1,6.868071E-1,-2.7517776E1,2.5736883E1,3.5829542E0,-6.4790115E1,-3.1853827E1,3.813001E1,-1.15852785E1,9.147344E0,-3.96365E1,-2.4515343E1,3.479004E-3,-1.2242054E1,1.23790655E1,7.208485E1,3.4941795E0,-4.9577174E0,-1.666934E1,-2.803074E0,-2.4763951E0,2.2871115E1,6.1361084E0,2.3279562E1],"categories":[],"categories_nodes":[],"categories_segments":[],"categories_sizes":[],"default_left":[0,0,0,0,0,0,0,0,0,0,0,0,0,0,0,0,0,0,0,0,0,0,0,0,0],"id":26,"left_children":[1,-1,3,5,7,9,11,13,15,17,-1,19,-1,-1,-1,21,23,-1,-1,-1,-1,-1,-1,-1,-1],"loss_changes":[9.410738E4,0E0,1.0753443E5,8.31378E4,5.8255297E4,2.5638088E4,4.4470344E4,1.3660776E4,5.769758E4,1.161552E4,0E0,2.5728871E4,0E0,0E0,0E0,9.831628E4,5.0331094E4,0E0,0E0,0E0,0E0,0E0,0E0,0E0,0E0],"parents":[2147483647,0,0,2,2,3,3,4,4,5,5,6,6,7,7,8,8,9,9,11,11,15,15,16,16],"right_children":[2,-1,4,6,8,10,12,14,16,18,-1,20,-1,-1,-1,22,24,-1,-1,-1,-1,-1,-1,-1,-1],"split_conditions":[2.85E1,1.8831179E1,2.1E1,9.6791446E-1,9.037433E-1,1.4E1,1.4E1,8.6316514E-1,6E1,1E0,9.147344E0,3E0,-2.4515343E1,3.479004E-3,-1.2242054E1,1E0,4E0,3.4941795E0,-4.9577174E0,-1.666934E1,-2.803074E0,-2.4763951E0,2.2871115E1,6.1361084E0,2.3279562E1],"split_indices":[0,0,8,5,5,8,8,5,8,8,0,8,0,0,0,4,7,0,0,0,0,0,0,0,0],"split_type":[0,0,0,0,0,0,0,0,0,0,0,0,0,0,0,0,0,0,0,0,0,0,0,0,0],"sum_hessian":[1.62E2,1.1E1,1.51E2,7.1E1,8E1,3.9E1,3.2E1,1.4E1,6.6E1,2.9E1,1E1,2.3E1,9E0,7E0,7E0,3.8E1,2.8E1,9E0,2E1,8E0,1.5E1,3.1E1,7E0,1.5E1,1.3E1],"tree_param":{"num_deleted":"0","num_feature":"10","num_nodes":"25","size_leaf_vector":"1"}},{"base_weights":[-2.6487684E0,7.2320305E1,-1.3914387E1,2.4241161E1,4.781675E0,1.2506686E0,-4.6522408E1,-8.919869E0,1.9219503E1,-1.7164967E1,-2.8497152E1,-1.4788489E0,-1.08644705E1,-2.7383972E1,2.0523115E1,1.2079927E1,-1.6254841E0,-1.1030581E1,2.2647991E1],"categories":[],"categories_nodes":[],"categories_segments":[],"categories_sizes":[],"default_left":[0,0,0,0,0,0,0,0,0,0,0,0,0,0,0,0,0,0,0],"id":27,"left_children":[1,3,5,-1,-1,7,9,11,-1,13,-1,15,-1,-1,17,-1,-1,-1,-1],"loss_changes":[1.396205E5,4.938075E4,7.104547E4,0E0,0E0,9.562815E4,1.2699861E5,3.022233E4,0E0,1.6236064E5,0E0,3.2219453E4,0E0,0E0,1.9740106E5,0E0,0E0,0E0,0E0],"parents":[2147483647,0,0,1,1,2,2,5,5,6,6,7,7,9,9,11,11,14,14],"right_children":[2,4,6,-1,-1,8,10,12,-1,14,-1,16,-1,-1,18,-1,-1,-1,-1],"split_conditions":[8.478153E0,1.0192307E0,9.9124247E-1,2.4241161E1,4.781675E0,9.786096E-1,1.0786517E0,9.364202E-1,1.9219503E1,9.230769E-1,-2.8497152E1,1.2219E1,-1.08644705E1,-2.7383972E1,1.0223464E0,1.2079927E1,-1.6254841E0,-1.1030581E1,2.2647991E1],"split_indices":[9,6,5,0,0,5,6,5,0,6,0,9,0,0,5,0,0,0,0],"split_type":[0,0,0,0,0,0,0,0,0,0,0,0,0,0,0,0,0,0,0],"sum_hessian":[1.64E2,2.1E1,1.43E2,1E1,1.1E1,9.8E1,4.5E1,8.9E1,9E0,3.5E1,1E1,7.7E1,1.2E1,8E0,2.7E1,7E0,7E1,1.5E1,1.2E1],"tree_param":{"num_deleted":"0","num_feature":"10","num_nodes":"19","size_leaf_vector":"1"}},{"base_weights":[1.295139E0,-6.601459E1,1.3632904E1,-4.0961452E1,4.055051E0,3.975754E1,1.4709662E0,8.64751E0,-4.853519E0,-3.3557068E1,2.5346539E1,-2.0486479E1,-1.8280445E1,2.7007008E1,8.175898E0,-6.4649973E0,1.3155025E0,6.522406E0,-7.265285E0],"categories":[],"categories_nodes":[],"categories_segments":[],"categories_sizes":[],"default_left":[0,0,0,0,0,0,0,0,0,0,0,0,0,0,0,0,0,0,0],"id":28,"left_children":[1,3,5,-1,7,-1,9,-1,-1,11,13,-1,15,-1,17,-1,-1,-1,-1],"loss_changes":[1.3723231E5,2.4946219E5,3.1418156E5,0E0,2.0161197E4,0E0,1.105693E5,0E0,0E0,5.5273457E4,1.4737453E5,0E0,1.5698259E4,0E0,7.531089E4,0E0,0E0,0E0,0E0],"parents":[2147483647,0,0,1,1,2,2,4,4,6,6,9,9,10,10,12,12,14,14],"right_children":[2,4,6,-1,8,-1,10,-1,-1,12,14,-1,16,-1,18,-1,-1,-1,-1],"split_conditions":[5E0,1.137687E1,2.85E1,-4.0961452E1,9.6629214E-1,3.975754E1,2.1E1,8.64751E0,-4.853519E0,1.003308E1,8.032423E0,-2.0486479E1,1.4E1,2.7007008E1,2.1767E1,-6.4649973E0,1.3155025E0,6.522406E0,-7.265285E0],"split_indices":[8,9,0,0,6,0,8,0,0,9,9,0,8,0,9,0,0,0,0],"split_type":[0,0,0,0,0,0,0,0,0,0,0,0,0,0,0,0,0,0,0],"sum_hessian":[1.64E2,2.5E1,1.39E2,8E0,1.7E1,8E0,1.31E2,7E0,1E1,5.3E1,7.8E1,9E0,4.4E1,1E1,6.8E1,2.8E1,1.6E1,4.4E1,2.4E1],"tree_param":{"num_deleted":"0","num_feature":"10","num_nodes":"19","size_leaf_vector":"1"}},{"base_weights":[4.9642954E0,-2.6578556E1,2.4126125E1,6.7170234E0,-3.4811707E1,3.8451496E1,-1.36314335E1,-1.8083838E1,-2.2374063E1,-2.3152094E1,5.48182E1,6.5501633E0,-3.686211E1,-5.508315E-1,-8.420605E0,1.00641525E2,3.1889055E1,-2.2946508E0,-1.4581764E1,2.6821852E0,2.785353E1,2.8900831E1,1.9585775E0],"categories":[],"categories_nodes":[],"categories_segments":[],"categories_sizes":[],"default_left":[0,0,0,0,0,0,0,0,0,0,0,0,0,0,0,0,0,0,0,0,0,0,0],"id":29,"left_children":[1,3,5,-1,7,9,-1,-1,11,13,15,-1,17,-1,-1,19,21,-1,-1,-1,-1,-1,-1],"loss_changes":[9.684998E4,3.0718883E4,1.332429E5,0E0,3.5857316E4,8.807572E4,0E0,0E0,3.634423E4,7.1204375E3,7.01517E4,0E0,3.2078672E4,0E0,0E0,7.5027375E4,1.1510861E5,0E0,0E0,0E0,0E0,0E0,0E0],"parents":[2147483647,0,0,1,1,2,2,4,4,5,5,8,8,9,9,10,10,12,12,15,15,16,16],"right_children":[2,4,6,-1,8,10,-1,-1,12,14,16,-1,18,-1,-1,20,22,-1,-1,-1,-1,-1,-1],"split_conditions":[1.4E1,8.5393256E-1,1.0386076E0,6.7170234E0,9.4148934E-1,9.037433E-1,-1.36314335E1,-1.8083838E1,1.006E1,8.6316514E-1,9.787234E-1,6.5501633E0,9.364202E-1,-5.508315E-1,-8.420605E0,8.3870965E-1,1.006E1,-2.2946508E0,-1.4581764E1,2.6821852E0,2.785353E1,2.8900831E1,1.9585775E0],"split_indices":[8,6,5,0,6,5,0,0,9,5,6,0,5,0,0,6,9,0,0,0,0,0,0],"split_type":[0,0,0,0,0,0,0,0,0,0,0,0,0,0,0,0,0,0,0,0,0,0,0],"sum_hessian":[1.59E2,6E1,9.9E1,7E0,5.3E1,8.6E1,1.3E1,9E0,4.4E1,1.8E1,6.8E1,9E0,3.5E1,9E0,9E0,2.2E1,4.6E1,2.1E1,1.4E1,7E0,1.5E1,7E0,3.9E1],"tree_param":{"num_deleted":"0","num_feature":"10","num_nodes":"23","size_leaf_vector":"1"}},{"base_weights":[3.8070395E0,2.182795E1,-4.6586843E0,-3.619735E1,5.61113E0,-2.7908258E0,-2.296567E1,2.1987272E1,-2.879974E1,-1.8066097E1,3.9695466E0,2.631085E1,1.7959341E0,-2.285548E1,-1.5393144E0,2.5670424E-1,-6.781067E0,1.0751278E1,-3.8844185E0,-6.3370733E0,3.333861E0],"categories":[],"categories_nodes":[],"categories_segments":[],"categories_sizes":[],"default_left":[0,0,0,0,0,0,0,0,0,0,0,0,0,0,0,0,0,0,0,0,0],"id":30,"left_children":[1,-1,3,5,7,9,-1,11,13,15,-1,-1,17,-1,19,-1,-1,-1,-1,-1,-1],"loss_changes":[1.3905633E5,0E0,4.6957258E4,9.332139E4,6.214144E4,9.067881E3,0E0,1.648961E5,8.2848055E4,4.807248E3,0E0,0E0,7.074533E4,0E0,1.5467041E4,0E0,0E0,0E0,0E0,0E0,0E0],"parents":[2147483647,0,0,2,2,3,3,4,4,5,5,7,7,8,8,9,9,12,12,14,14],"right_children":[2,-1,4,6,8,10,-1,12,14,16,-1,-1,18,-1,20,-1,-1,-1,-1,-1,-1],"split_conditions":[2.85E1,2.182795E1,9.255319E-1,5.082E1,1.1235955E0,1.328121E1,-2.296567E1,8.478153E0,1.2413793E0,1.2608E1,3.9695466E0,2.631085E1,1E0,-2.285548E1,1.4E1,2.5670424E-1,-6.781067E0,1.0751278E1,-3.8844185E0,-6.3370733E0,3.333861E0],"split_indices":[0,0,6,0,6,9,0,9,6,9,0,0,6,0,8,0,0,0,0,0,0],"split_type":[0,0,0,0,0,0,0,0,0,0,0,0,0,0,0,0,0,0,0,0,0],"sum_hessian":[1.55E2,1.1E1,1.44E2,3.5E1,1.09E2,2.5E1,1E1,7.4E1,3.5E1,1.5E1,1E1,1.1E1,6.3E1,8E0,2.7E1,7E0,8E0,1.8E1,4.5E1,1E1,1.7E1],"tree_param":{"num_deleted":"0","num_feature":"10","num_nodes":"21","size_leaf_vector":"1"}},{"base_weights":[3.563494E-1,-7.39318E1,1.131711E1,-2.538252E1,5.342532E0,2.1618431E1,4.151484E0,-1.1492292E1,5.13903E1,-5.5275894E1,3.0381637E0,-8.835787E0,7.855796E1,-4.257118E0,-2.5925282E1,4.7162147E0,-1.9217666E0,6.45828E0,2.8440338E1],"categories":[],"categories_nodes":[],"categories_segments":[],"categories_sizes":[],"default_left":[0,0,0,0,0,0,0,0,0,0,0,0,0,0,0,0,0,0,0],"id":31,"left_children":[1,3,5,-1,-1,-1,7,9,11,13,15,-1,17,-1,-1,-1,-1,-1,-1],"loss_changes":[1.30457055E5,1.11877914E5,9.653689E4,0E0,0E0,0E0,9.6866914E4,6.2829664E4,8.6724734E4,6.0513523E4,1.9517486E4,0E0,7.2626016E4,0E0,0E0,0E0,0E0,0E0,0E0],"parents":[2147483647,0,0,1,1,2,2,6,6,7,7,8,8,9,9,10,10,12,12],"right_children":[2,4,6,-1,-1,-1,8,10,12,14,16,-1,18,-1,-1,-1,-1,-1,-1],"split_conditions":[3E0,4.36E1,2.85E1,-2.538252E1,5.342532E0,2.1618431E1,6E1,9.255319E-1,8.707865E-1,8.707865E-1,1E0,-8.835787E0,4.36E1,-4.257118E0,-2.5925282E1,4.7162147E0,-1.9217666E0,6.45828E0,2.8440338E1],"split_indices":[8,0,0,0,0,0,8,6,6,6,3,0,0,0,0,0,0,0,0],"split_type":[0,0,0,0,0,0,0,0,0,0,0,0,0,0,0,0,0,0,0],"sum_hessian":[1.59E2,2E1,1.39E2,1.3E1,7E0,9E0,1.3E2,9.8E1,3.2E1,2.4E1,7.4E1,7E0,2.5E1,1.7E1,7E0,2.8E1,4.6E1,1.5E1,1E1],"tree_param":{"num_deleted":"0","num_feature":"10","num_nodes":"19","size_leaf_vector":"1"}},{"base_weights":[-1.7461438E-1,-2.571112E1,6.950812E0,1.708444E1,-6.537646E1,-2.006552E0,3.2045937E1,7.279274E0,-2.567215E-1,-1.610113E1,-8.433539E0,4.5075426E0,-1.0776565E1,-1.1188264E1,6.0853077E1,-1.0073848E1,2.3795822E1,1.1002689E2,-2.992091E0,-1.1060071E-1,-8.08269E0,1.0279267E1,3.2453713E0,2.7144669E1,1.5928421E1],"categories":[],"categories_nodes":[],"categories_segments":[],"categories_sizes":[],"default_left":[0,0,0,0,0,0,0,0,0,0,0,0,0,0,0,0,0,0,0,0,0,0,0,0,0],"id":32,"left_children":[1,3,5,7,9,11,13,-1,-1,-1,-1,15,-1,-1,17,19,21,23,-1,-1,-1,-1,-1,-1,-1],"loss_changes":[2.969368E4,6.1101156E4,2.8721293E4,6.2711455E3,4.494172E3,3.211362E4,8.7207125E4,0E0,0E0,0E0,0E0,2.3937574E4,0E0,0E0,9.642546E4,1.4025119E4,7.1456094E3,5.6946406E3,0E0,0E0,0E0,0E0,0E0,0E0,0E0],"parents":[2147483647,0,0,1,1,2,2,3,3,4,4,5,5,6,6,11,11,14,14,15,15,16,16,17,17],"right_children":[2,4,6,8,10,12,14,-1,-1,-1,-1,16,-1,-1,18,20,22,24,-1,-1,-1,-1,-1,-1,-1],"split_conditions":[5.11E1,9.6276593E-1,9.786096E-1,5.082E1,1.0344827E0,9.364202E-1,9.0425533E-1,7.279274E0,-2.567215E-1,-1.610113E1,-8.433539E0,9.0909094E-1,-1.0776565E1,-1.1188264E1,1.0192307E0,1.1612903E0,8.269231E-1,1E0,-2.992091E0,-1.1060071E-1,-8.08269E0,1.0279267E1,3.2453713E0,2.7144669E1,1.5928421E1],"split_indices":[1,6,5,0,6,5,6,0,0,0,0,5,0,0,6,6,6,6,0,0,0,0,0,0,0],"split_type":[0,0,0,0,0,0,0,0,0,0,0,0,0,0,0,0,0,0,0,0,0,0,0,0,0],"sum_hessian":[1.62E2,3.5E1,1.27E2,1.7E1,1.8E1,9.4E1,3.3E1,8E0,9E0,1E1,8E0,8.4E1,1E1,8E0,2.5E1,4.8E1,3.6E1,1.5E1,1E1,3.7E1,1.1E1,7E0,2.9E1,7E0,8E0],"tree_param":{"num_deleted":"0","num_feature":"10","num_nodes":"25","size_leaf_vector":"1"}},{"base_weights":[1.981137E0,2.1499859E1,-2.0731293E1,1.0320424E1,1.3250127E1,-1.3821054E1,-1.0675236E1,-1.6869587E1,3.9973763E1,-8.981912E0,-8.040715E0,-1.3584543E1,-1.9024612E0,1.6412872E1,2.5402878E1,-1.5225155E1,2.3438778E0,1.5318965E0,-3.8627574E0,2.912502E0,9.415008E0,4.9807283E-1,-5.1595354E0],"categories":[],"categories_nodes":[],"categories_segments":[],"categories_sizes":[],"default_left":[0,0,0,0,0,0,0,0,0,0,0,0,0,0,0,0,0,0,0,0,0,0,0],"id":33,"left_children":[1,3,5,7,-1,9,-1,11,13,15,-1,-1,17,-1,19,21,-1,-1,-1,-1,-1,-1,-1],"loss_changes":[6.4814477E4,3.891242E4,1.4806844E4,5.1683668E4,0E0,7.0093896E3,0E0,2.5596852E4,1.7516086E4,6.3882803E3,0E0,0E0,4.5172905E3,0E0,5.133129E3,7.0809395E3,0E0,0E0,0E0,0E0,0E0,0E0,0E0],"parents":[2147483647,0,0,1,1,2,2,3,3,5,5,7,7,8,8,9,9,12,12,14,14,15,15],"right_children":[2,4,6,8,-1,10,-1,12,14,16,-1,-1,18,-1,20,22,-1,-1,-1,-1,-1,-1,-1],"split_conditions":[1.515134E1,9E0,4E0,1.137687E1,1.3250127E1,2.7985E1,-1.0675236E1,2.85E1,1.2412E1,2.56538E1,-8.040715E0,-1.3584543E1,5.082E1,1.6412872E1,1.261396E1,2.2122E1,2.3438778E0,1.5318965E0,-3.8627574E0,2.912502E0,9.415008E0,4.9807283E-1,-5.1595354E0],"split_indices":[9,7,7,9,0,9,0,0,9,9,0,0,0,0,9,9,0,0,0,0,0,0,0],"split_type":[0,0,0,0,0,0,0,0,0,0,0,0,0,0,0,0,0,0,0,0,0,0,0],"sum_hessian":[1.45E2,7.8E1,6.7E1,6.3E1,1.5E1,5.6E1,1.1E1,3.3E1,3E1,4.8E1,8E0,7E0,2.6E1,7E0,2.3E1,3.7E1,1.1E1,1.7E1,9E0,1.6E1,7E0,1.4E1,2.3E1],"tree_param":{"num_deleted":"0","num_feature":"10","num_nodes":"23","size_leaf_vector":"1"}},{"base_weights":[-3.490822E0,-7.9099556E1,9.609116E0,-2.7235498E1,1.3409173E0,2.7386122E1,1.7336397E0,-2.4365242E1,2.2192818E1,-7.508488E1,-2.3532777E-1,-7.4965463E0,8.02525E1,-4.4775867E0,-2.351995E1,-2.2235203E0,3.8918335E0,-4.949751E0,3.405373E0,2.4457174E1,6.088916E0],"categories":[],"categories_nodes":[],"categories_segments":[],"categories_sizes":[],"default_left":[0,0,0,0,0,0,0,0,0,0,0,0,0,0,0,0,0,0,0,0,0],"id":34,"left_children":[1,3,5,-1,-1,-1,7,9,11,13,15,17,19,-1,-1,-1,-1,-1,-1,-1,-1],"loss_changes":[1.5160172E5,1.1123184E5,1.3081246E5,0E0,0E0,0E0,6.632209E4,6.681218E4,1.2033433E5,3.785142E4,8.1882695E3,1.9968504E4,4.717508E4,0E0,0E0,0E0,0E0,0E0,0E0,0E0,0E0],"parents":[2147483647,0,0,1,1,2,2,6,6,7,7,8,8,9,9,10,10,11,11,12,12],"right_children":[2,4,6,-1,-1,-1,8,10,12,14,16,18,20,-1,-1,-1,-1,-1,-1,-1,-1],"split_conditions":[5E0,4.36E1,2.85E1,-2.7235498E1,1.3409173E0,2.7386122E1,2.1E1,6.5E1,5.052E1,5E0,1.4E1,6E1,5.35E1,-4.4775867E0,-2.351995E1,-2.2235203E0,3.8918335E0,-4.949751E0,3.405373E0,2.4457174E1,6.088916E0],"split_indices":[8,0,0,0,0,0,8,1,0,7,8,8,0,0,0,0,0,0,0,0,0],"split_type":[0,0,0,0,0,0,0,0,0,0,0,0,0,0,0,0,0,0,0,0,0],"sum_hessian":[1.52E2,2.2E1,1.3E2,1.3E1,9E0,7E0,1.23E2,5.4E1,6.9E1,1.7E1,3.7E1,4.6E1,2.3E1,8E0,9E0,2.4E1,1.3E1,2.7E1,1.9E1,1.2E1,1.1E1],"tree_param":{"num_deleted":"0","num_feature":"10","num_nodes":"21","size_leaf_vector":"1"}},{"base_weights":[3.8309274E0,1.5889075E1,-1.9743341E1,-3.423166E1,2.8724894E1,1.1258529E1,-3.382368E1,-1.642557E1,2.2612305E0,-1.5066154E1,3.766332E1,-6.705897E1,-1.136741E0,1.7249672E1,-2.3038246E1,3.643675E1,1.7119913E1,-1.8760332E1,-6.294941E0,-3.6196735E0,5.942034E0,-2.8373141E0,5.848746E0],"categories":[],"categories_nodes":[],"categories_segments":[],"categories_sizes":[],"default_left":[0,0,0,0,0,0,0,0,0,0,0,0,0,0,0,0,0,0,0,0,0,0,0],"id":35,"left_children":[1,3,5,7,9,-1,11,-1,-1,13,15,17,19,-1,-1,-1,21,-1,-1,-1,-1,-1,-1],"loss_changes":[4.498792E4,6.788341E4,5.8527234E4,4.7668625E4,3.306342E4,0E0,4.949227E4,0E0,0E0,1.5406522E5,2.0476697E5,1.9735164E4,1.2670468E4,0E0,0E0,0E0,2.3629451E4,0E0,0E0,0E0,0E0,0E0,0E0],"parents":[2147483647,0,0,1,1,2,2,3,3,4,4,6,6,9,9,10,10,11,11,12,12,16,16],"right_children":[2,4,6,8,10,-1,12,-1,-1,14,16,18,20,-1,-1,-1,22,-1,-1,-1,-1,-1,-1],"split_conditions":[1.0192307E0,1.0229E1,8.478153E0,2.1E1,5E0,1.1258529E1,1.2115384E0,-1.642557E1,2.2612305E0,1E0,1.1466E1,1.2608E1,7E0,1.7249672E1,-2.3038246E1,3.643675E1,1.4E1,-1.8760332E1,-6.294941E0,-3.6196735E0,5.942034E0,-2.8373141E0,5.848746E0],"split_indices":[6,9,9,8,8,0,6,0,0,8,9,9,7,0,0,0,8,0,0,0,0,0,0],"split_type":[0,0,0,0,0,0,0,0,0,0,0,0,0,0,0,0,0,0,0,0,0,0,0],"sum_hessian":[1.57E2,1.04E2,5.3E1,2.1E1,8.3E1,8E0,4.5E1,1E1,1.1E1,1.4E1,6.9E1,2.2E1,2.3E1,7E0,7E0,8E0,6.1E1,1.2E1,1E1,1.5E1,8E0,1.7E1,4.4E1],"tree_param":{"num_deleted":"0","num_feature":"10","num_nodes":"23","size_leaf_vector":"1"}},{"base_weights":[-1.02286415E1,-6.1763453E0,-1.837067E1,-4.7860497E1,-1.23873346E-1,9.717708E0,-2.0751408E1,6.348308E0,-3.100071E1,-6.763058E0,4.3250378E1,2.9272566E0,-1.613239E1,-2.8421253E-1,-8.694367E0,-2.690347E0,2.6386438E1,-7.0284233E0,8.153106E0],"categories":[],"categories_nodes":[],"categories_segments":[],"categories_sizes":[],"default_left":[0,0,0,0,0,0,0,0,0,0,0,0,0,0,0,0,0,0,0],"id":36,"left_children":[1,3,-1,5,7,-1,-1,9,11,13,15,17,-1,-1,-1,-1,-1,-1,-1],"loss_changes":[5.3111633E4,3.9000812E4,0E0,1.0869172E5,2.7216453E4,0E0,0E0,5.4655496E4,3.990542E4,1.6356738E4,1.4990684E5,2.189055E4,0E0,0E0,0E0,0E0,0E0,0E0,0E0],"parents":[2147483647,0,0,1,1,3,3,4,4,7,7,8,8,9,9,10,10,11,11],"right_children":[2,4,-1,6,8,-1,-1,10,12,14,16,18,-1,-1,-1,-1,-1,-1,-1],"split_conditions":[1.0670391E0,3E0,-1.837067E1,5E0,1.0094937E0,9.717708E0,-2.0751408E1,9.6791446E-1,1E0,9.343284E-1,2.8E1,9.6276593E-1,-1.613239E1,-2.8421253E-1,-8.694367E0,-2.690347E0,2.6386438E1,-7.0284233E0,8.153106E0],"split_indices":[5,8,0,7,5,0,0,5,6,5,8,6,0,0,0,0,0,0,0],"split_type":[0,0,0,0,0,0,0,0,0,0,0,0,0,0,0,0,0,0,0],"sum_hessian":[1.61E2,1.54E2,7E0,1.9E1,1.35E2,7E0,1.2E1,1.12E2,2.3E1,8.3E1,2.9E1,1.4E1,9E0,7.3E1,1E1,1.8E1,1.1E1,7E0,7E0],"tree_param":{"num_deleted":"0","num_feature":"10","num_nodes":"19","size_leaf_vector":"1"}},{"base_weights":[-6.0876203E0,8.185099E0,-2.9105644E1,-7.039721E0,1.4369159E1,-5.175203E1,-1.3824673E1,3.2338955E0,2.626543E1,-1.4651506E1,-7.3054833E0,1.2940504E1,-3.1932724E1,-3.2224155E1,1.9525005E1,-2.3776736E0,6.795894E0,-1.4966472E1,1.1356105E0,-3.561147E0,-1.0323941E1,7.408802E0,6.7716E-1],"categories":[],"categories_nodes":[],"categories_segments":[],"categories_sizes":[],"default_left":[0,0,0,0,0,0,0,0,0,0,0,0,0,0,0,0,0,0,0,0,0,0,0],"id":37,"left_children":[1,3,5,-1,7,9,11,13,-1,-1,-1,15,17,19,21,-1,-1,-1,-1,-1,-1,-1,-1],"loss_changes":[5.290482E4,2.7024895E4,2.0887941E4,0E0,1.13831734E5,6.4488125E3,1.8471348E4,4.693618E4,0E0,0E0,0E0,8.391407E3,3.6719777E4,6.6076445E3,1.5645248E4,0E0,0E0,0E0,0E0,0E0,0E0,0E0,0E0],"parents":[2147483647,0,0,1,1,2,2,4,4,5,5,6,6,7,7,11,11,12,12,13,13,14,14],"right_children":[2,4,6,-1,8,10,12,14,-1,-1,-1,16,18,20,22,-1,-1,-1,-1,-1,-1,-1,-1],"split_conditions":[9.9124247E-1,3E0,1.0119402E0,-7.039721E0,9.786096E-1,5E0,5.4E1,9.037433E-1,2.626543E1,-1.4651506E1,-7.3054833E0,1.4E1,6E1,8.6316514E-1,9.144385E-1,-2.3776736E0,6.795894E0,-1.4966472E1,1.1356105E0,-3.561147E0,-1.0323941E1,7.408802E0,6.7716E-1],"split_indices":[5,8,5,0,5,8,0,5,0,0,0,8,8,5,5,0,0,0,0,0,0,0,0],"split_type":[0,0,0,0,0,0,0,0,0,0,0,0,0,0,0,0,0,0,0,0,0,0,0],"sum_hessian":[1.6E2,9.9E1,6.1E1,1.2E1,8.7E1,2.4E1,3.7E1,8E1,7E0,9E0,1.5E1,1.5E1,2.2E1,2.5E1,5.5E1,7E0,8E0,1E1,1.2E1,1.5E1,1E1,2.6E1,2.9E1],"tree_param":{"num_deleted":"0","num_feature":"10","num_nodes":"23","size_leaf_vector":"1"}},{"base_weights":[-4.368142E0,-1.9648733E1,1.0744991E1,-4.6484485E0,-5.8834473E1,1.5287701E1,-3.5953171E0,-1.5054809E1,1.2179042E1,-1.8662796E1,-6.49984E0,-1.9969724E0,1.9412153E1,1.0034227E1,-2.6783522E1,1.3405055E1,1.1881769E1,-3.7360382E-1,3.9704862E0,1.0981243E0,-7.84621E0,3.5015202E0,2.1122725E-1],"categories":[],"categories_nodes":[],"categories_segments":[],"categories_sizes":[],"default_left":[0,0,0,0,0,0,0,0,0,0,0,0,0,0,0,0,0,0,0,0,0,0,0],"id":38,"left_children":[1,3,5,7,9,11,-1,13,-1,-1,-1,-1,15,17,19,-1,21,-1,-1,-1,-1,-1,-1],"loss_changes":[3.467494E4,4.3685586E4,1.0028709E4,3.779113E4,1.6885773E4,6.9541445E3,0E0,1.4168128E4,0E0,0E0,0E0,0E0,1.9815822E4,1.8452462E3,1.3225746E4,0E0,3.009704E3,0E0,0E0,0E0,0E0,0E0,0E0],"parents":[2147483647,0,0,1,1,2,2,3,3,4,4,5,5,7,7,12,12,13,13,14,14,16,16],"right_children":[2,4,6,8,10,12,-1,14,-1,-1,-1,-1,16,18,20,-1,22,-1,-1,-1,-1,-1,-1],"split_conditions":[8.274E1,1.1235955E0,1.1612903E0,1.0955056E0,1.137687E1,1.2412E1,-3.5953171E0,4E0,1.2179042E1,-1.8662796E1,-6.49984E0,-1.9969724E0,1.2608E1,4.4E1,4E1,1.3405055E1,2.3961E1,-3.7360382E-1,3.9704862E0,1.0981243E0,-7.84621E0,3.5015202E0,2.1122725E-1],"split_indices":[1,6,6,6,9,9,0,7,0,0,0,0,9,1,1,0,9,0,0,0,0,0,0],"split_type":[0,0,0,0,0,0,0,0,0,0,0,0,0,0,0,0,0,0,0,0,0,0,0],"sum_hessian":[1.49E2,7.4E1,7.5E1,5.4E1,2E1,6.5E1,1E1,4.7E1,7E0,8E0,1.2E1,9E0,5.6E1,1.5E1,3.2E1,7E0,4.9E1,7E0,8E0,9E0,2.3E1,3.2E1,1.7E1],"tree_param":{"num_deleted":"0","num_feature":"10","num_nodes":"23","size_leaf_vector":"1"}},{"base_weights":[1.5137137E0,-1.1930209E1,6.3804927E0,1.2354376E1,-1.4553907E1,9.716861E-1,2.9315777E1,1.3773204E1,-1.8913446E1,1.7579002E1,-1.2208802E1,7.303718E1,4.202104E0,-1.6528648E1,5.4938038E1,1.5220075E0,5.37437E0,2.0586598E0,-5.682554E0,9.737471E0,1.9605751E1,-1.639758E0,6.109945E0,2.1516347E0,2.2444021E1],"categories":[],"categories_nodes":[],"categories_segments":[],"categories_sizes":[],"default_left":[0,0,0,0,0,0,0,0,0,0,0,0,0,0,0,0,0,0,0,0,0,0,0,0,0],"id":39,"left_children":[1,-1,3,5,7,9,11,13,-1,15,17,19,21,-1,23,-1,-1,-1,-1,-1,-1,-1,-1,-1,-1],"loss_changes":[4.6844324E4,0E0,1.831657E4,2.191525E4,7.467091E4,1.51448E4,4.988487E4,1.00360734E5,0E0,2.712088E3,1.4249934E4,7.238117E3,9.821609E3,0E0,4.38162E4,0E0,0E0,0E0,0E0,0E0,0E0,0E0,0E0,0E0,0E0],"parents":[2147483647,0,0,2,2,3,3,4,4,5,5,6,6,7,7,9,9,10,10,11,11,12,12,14,14],"right_children":[2,-1,4,6,8,10,12,14,-1,16,18,20,22,-1,24,-1,-1,-1,-1,-1,-1,-1,-1,-1,-1],"split_conditions":[2.85E1,-1.1930209E1,5.35E1,1.0344827E0,1E0,9.255319E-1,1.1612903E0,9.230769E-1,-1.8913446E1,2.1E1,1.4E1,4.36E1,7E0,-1.6528648E1,5.4E1,1.5220075E0,5.37437E0,2.0586598E0,-5.682554E0,9.737471E0,1.9605751E1,-1.639758E0,6.109945E0,2.1516347E0,2.2444021E1],"split_indices":[0,0,0,6,6,6,6,6,0,8,8,0,7,0,0,0,0,0,0,0,0,0,0,0,0],"split_type":[0,0,0,0,0,0,0,0,0,0,0,0,0,0,0,0,0,0,0,0,0,0,0,0,0],"sum_hessian":[1.56E2,1.1E1,1.45E2,1.13E2,3.2E1,6.8E1,4.5E1,2.4E1,8E0,3E1,3.8E1,1.6E1,2.9E1,7E0,1.7E1,1.5E1,1.5E1,1.6E1,2.2E1,9E0,7E0,2E1,9E0,1E1,7E0],"tree_param":{"num_deleted":"0","num_feature":"10","num_nodes":"25","size_leaf_vector":"1"}},{"base_weights":[4.353454E0,-3.0017622E0,1.3726719E1,-6.3365912E0,-4.0391192E-1,-9.051347E0,2.683331E1,-4.525699E0,6.416082E0,1.7238673E0,-5.264541E0,8.836996E0,1.7461216E1,4.7059407E0,-2.6300056E1,2.2829205E1,1.2081437E0,-1.5746453E-1,5.9865212E0,-8.900672E0,-2.4580739E0,2.1572323E0,7.7761855E0],"categories":[],"categories_nodes":[],"categories_segments":[],"categories_sizes":[],"default_left":[0,0,0,0,0,0,0,0,0,0,0,0,0,0,0,0,0,0,0,0,0,0,0],"id":40,"left_children":[1,3,5,-1,7,9,11,13,-1,-1,-1,-1,15,17,19,21,-1,-1,-1,-1,-1,-1,-1],"loss_changes":[1.1234756E4,6.817387E3,2.1521387E4,0E0,1.1414498E4,8.254362E3,6.952621E3,1.5270846E4,0E0,0E0,0E0,0E0,1.7931934E3,7.441851E3,5.435332E3,3.7305928E3,0E0,0E0,0E0,0E0,0E0,0E0,0E0],"parents":[2147483647,0,0,1,1,2,2,4,4,5,5,6,6,7,7,12,12,13,13,14,14,15,15],"right_children":[2,4,6,-1,8,10,12,14,-1,-1,-1,-1,16,18,20,22,-1,-1,-1,-1,-1,-1,-1],"split_conditions":[9.786096E-1,8.5026735E-1,4.4E1,-6.3365912E0,5.052E1,5E0,5.082E1,9.144385E-1,6.416082E0,1.7238673E0,-5.264541E0,8.836996E0,7E0,9.0909094E-1,9.343284E-1,1.0291139E0,1.2081437E0,-1.5746453E-1,5.9865212E0,-8.900672E0,-2.4580739E0,2.1572323E0,7.7761855E0],"split_indices":[5,5,1,0,0,7,0,5,0,0,0,0,7,5,5,5,0,0,0,0,0,0,0],"split_type":[0,0,0,0,0,0,0,0,0,0,0,0,0,0,0,0,0,0,0,0,0,0,0],"sum_hessian":[1.62E2,9.1E1,7.1E1,7E0,8.4E1,2.6E1,4.5E1,7.5E1,9E0,1.3E1,1.3E1,1.5E1,3E1,5.3E1,2.2E1,2E1,1E1,4.4E1,9E0,9E0,1.3E1,1.2E1,8E0],"tree_param":{"num_deleted":"0","num_feature":"10","num_nodes":"23","size_leaf_vector":"1"}},{"base_weights":[3.2820578E0,7.6608806E0,-3.9621326E1,-9.166905E0,1.1044714E1,6.66908E0,-2.189201E1,3.9107372E1,5.607377E-1,1.5551543E1,1.8357018E1,-7.375551E0,9.304937E0,-4.5756803E0,7.811288E0,6.629078E0,-3.1385107E0],"categories":[],"categories_nodes":[],"categories_segments":[],"categories_sizes":[],"default_left":[0,0,0,0,0,0,0,0,0,0,0,0,0,0,0,0,0],"id":41,"left_children":[1,3,5,-1,7,-1,-1,9,11,-1,13,15,-1,-1,-1,-1,-1],"loss_changes":[2.9601984E4,2.6117123E4,7.659017E4,0E0,3.9587273E4,0E0,0E0,2.8497055E4,3.6173504E4,0E0,2.1533441E4,2.8823361E4,0E0,0E0,0E0,0E0,0E0],"parents":[2147483647,0,0,1,1,2,2,4,4,7,7,8,8,10,10,11,11],"right_children":[2,4,6,-1,8,-1,-1,10,12,-1,14,16,-1,-1,-1,-1,-1],"split_conditions":[1.0481013E0,7.638889E-1,2.1E1,-9.166905E0,9.787234E-1,6.66908E0,-2.189201E1,4.4E1,9E1,1.5551543E1,2.1E1,8.6316514E-1,9.304937E0,-4.5756803E0,7.811288E0,6.629078E0,-3.1385107E0],"split_indices":[5,6,8,0,6,0,0,1,8,0,8,5,0,0,0,0,0],"split_type":[0,0,0,0,0,0,0,0,0,0,0,0,0,0,0,0,0],"sum_hessian":[1.56E2,1.42E2,1.4E1,8E0,1.34E2,7E0,7E0,3.6E1,9.8E1,1.2E1,2.4E1,8.4E1,1.4E1,8E0,1.6E1,1.4E1,7E1],"tree_param":{"num_deleted":"0","num_feature":"10","num_nodes":"17","size_leaf_vector":"1"}},{"base_weights":[1.0621065E1,1.5434047E1,6.1587925E0,3.69554E-1,3.9115025E1,-6.3434687E0,1.8464142E1,-4.2847266E0,1.5134232E1,-9.123175E-1,-1.1613043E1,-6.4127803E0,5.1101757E1,-9.072011E-1,7.041173E0,-4.9132724E0,9.684739E-1,6.113826E0,1.3520007E1],"categories":[],"categories_nodes":[],"categories_segments":[],"categories_sizes":[],"default_left":[0,0,0,0,0,0,0,0,0,0,0,0,0,0,0,0,0,0,0],"id":42,"left_children":[1,-1,3,5,7,9,11,-1,-1,13,-1,15,17,-1,-1,-1,-1,-1,-1],"loss_changes":[4.532797E4,0E0,2.7579775E4,1.5083892E4,4.8774758E4,2.5418535E4,2.747725E4,0E0,0E0,1.0906589E4,0E0,4.0760728E3,3.7059102E3,0E0,0E0,0E0,0E0,0E0,0E0],"parents":[2147483647,0,0,2,2,3,3,4,4,5,5,6,6,9,9,11,11,12,12],"right_children":[2,-1,4,6,8,10,12,-1,-1,14,-1,16,18,-1,-1,-1,-1,-1,-1],"split_conditions":[4E1,1.5434047E1,1.0291139E0,1.0955056E0,9.4148934E-1,1.011236E0,9.2743605E-1,-4.2847266E0,1.5134232E1,1.0223464E0,-1.1613043E1,8.274E1,9.3048126E-1,-9.072011E-1,7.041173E0,-4.9132724E0,9.684739E-1,6.113826E0,1.3520007E1],"split_indices":[1,0,5,6,6,6,5,0,0,5,0,1,5,0,0,0,0,0,0],"split_type":[0,0,0,0,0,0,0,0,0,0,0,0,0,0,0,0,0,0,0],"sum_hessian":[1.53E2,9E0,1.44E2,1.23E2,2.1E1,9E1,3.3E1,8E0,1.3E1,8.2E1,8E0,1.9E1,1.4E1,7.5E1,7E0,7E0,1.2E1,7E0,7E0],"tree_param":{"num_deleted":"0","num_feature":"10","num_nodes":"19","size_leaf_vector":"1"}},{"base_weights":[6.9393864E0,1.3942349E1,2.24408E0,5.743082E0,-1.0535186E1,-2.5615263E1,1.2343539E1,-7.1832895E0,-2.9823716E0,2.6479053E0,6.0736294E1,1.4263606E0,-5.303352E0,4.699507E0,2.2555885E1],"categories":[],"categories_nodes":[],"categories_segments":[],"categories_sizes":[],"default_left":[0,0,0,0,0,0,0,0,0,0,0,0,0,0,0],"id":43,"left_children":[1,-1,3,5,-1,7,9,-1,-1,11,13,-1,-1,-1,-1],"loss_changes":[4.4882766E4,0E0,2.758427E4,2.8049143E4,0E0,2.2807334E3,5.226605E4,0E0,0E0,1.2353668E4,3.445718E4,0E0,0E0,0E0,0E0],"parents":[2147483647,0,0,2,2,3,3,5,5,6,6,9,9,10,10],"right_children":[2,-1,4,6,-1,8,10,-1,-1,12,14,-1,-1,-1,-1],"split_conditions":[1E0,1.3942349E1,1E1,9.037433E-1,-1.0535186E1,4E0,9E1,-7.1832895E0,-2.9823716E0,1.0481013E0,9.364202E-1,1.4263606E0,-5.303352E0,4.699507E0,2.2555885E1],"split_indices":[8,0,7,5,0,7,8,0,0,5,5,0,0,0,0],"split_type":[0,0,0,0,0,0,0,0,0,0,0,0,0,0,0],"sum_hessian":[1.52E2,1E1,1.42E2,1.34E2,8E0,2.3E1,1.11E2,1.1E1,1.2E1,9.3E1,1.8E1,8.1E1,1.2E1,1.1E1,7E0],"tree_param":{"num_deleted":"0","num_feature":"10","num_nodes":"15","size_leaf_vector":"1"}},{"base_weights":[1.3557075E0,-2.9578383E0,1.3698079E1,4.760174E0,-1.5689838E1,1.1338636E1,-4.9076E-1,-3.2605894E0,-1.2747621E1,4.397312E0,-5.4532495E0,-2.611689E1,2.0693615E1,8.325683E-1,-4.49082E0,4.7527905E0,-1.05221615E1,-1.5244395E0,8.70589E0],"categories":[],"categories_nodes":[],"categories_segments":[],"categories_sizes":[],"default_left":[0,0,0,0,0,0,0,0,0,0,0,0,0,0,0,0,0,0,0],"id":44,"left_children":[1,3,-1,5,7,-1,9,11,-1,-1,13,15,17,-1,-1,-1,-1,-1,-1],"loss_changes":[4.6050293E4,1.4745366E4,0E0,2.5541113E4,3.3677043E4,0E0,9.62006E3,2.5290477E4,0E0,0E0,1.1597894E4,3.193846E4,1.4812574E4,0E0,0E0,0E0,0E0,0E0,0E0],"parents":[2147483647,0,0,1,1,3,3,4,4,6,6,7,7,10,10,11,11,12,12],"right_children":[2,4,-1,6,8,-1,10,12,-1,-1,14,16,18,-1,-1,-1,-1,-1,-1],"split_conditions":[1.0614525E0,9.73262E-1,1.3698079E1,1.2219E1,1.0786517E0,1.1338636E1,8.6316514E-1,1.520373E1,-1.2747621E1,4.397312E0,2.280151E1,8.478153E0,9.6629214E-1,8.325683E-1,-4.49082E0,4.7527905E0,-1.05221615E1,-1.5244395E0,8.70589E0],"split_indices":[5,5,0,9,6,0,5,9,0,0,9,9,6,0,0,0,0,0,0],"split_type":[0,0,0,0,0,0,0,0,0,0,0,0,0,0,0,0,0,0,0],"sum_hessian":[1.58E2,1.49E2,9E0,9.3E1,5.6E1,8E0,8.5E1,4.5E1,1.1E1,1.5E1,7E1,2.3E1,2.2E1,4.5E1,2.5E1,8E0,1.5E1,1E1,1.2E1],"tree_param":{"num_deleted":"0","num_feature":"10","num_nodes":"19","size_leaf_vector":"1"}},{"base_weights":[3.0013075E-1,-3.687055E0,1.3978012E1,5.0992956E0,-2.6884092E1,5.113681E0,1.9367177E0,-1.7883761E0,2.1109587E1,-1.379199E0,-1.8643377E1,-4.5015845E-1,1.3925894E0,1.1224093E1,-6.5771666E0,3.3011375E1,-1.497637E0,7.008337E-1,-8.306929E-1,-2.5122776E0,5.5285015E0,-2.3105295E0,-9.784832E-1,7.6514544E0,4.72648E0],"categories":[],"categories_nodes":[],"categories_segments":[],"categories_sizes":[],"default_left":[0,0,0,0,0,0,0,0,0,0,0,0,0,0,0,0,0,0,0,0,0,0,0,0,0],"id":45,"left_children":[1,3,5,7,9,-1,11,13,15,17,-1,-1,-1,19,21,23,-1,-1,-1,-1,-1,-1,-1,-1,-1],"loss_changes":[8.843981E3,2.5681709E4,5.078306E3,1.0123715E4,5.8459516E4,0E0,4.0088464E2,4.0697773E3,9.542382E3,3.5555524E2,0E0,0E0,0E0,7.0814873E3,3.6509204E2,4.21875E2,0E0,0E0,0E0,0E0,0E0,0E0,0E0,0E0,0E0],"parents":[2147483647,0,0,1,1,2,2,3,3,4,4,6,6,7,7,8,8,9,9,13,13,14,14,15,15],"right_children":[2,4,6,8,10,-1,12,14,16,18,-1,-1,-1,20,22,24,-1,-1,-1,-1,-1,-1,-1,-1,-1],"split_conditions":[1.0119402E0,9.73262E-1,1.0386076E0,9.2743605E-1,1E0,5.113681E0,1.0670391E0,8.6316514E-1,1E0,9.951923E-1,-1.8643377E1,-4.5015845E-1,1.3925894E0,8.5026735E-1,9.037433E-1,4.36E1,-1.497637E0,7.008337E-1,-8.306929E-1,-2.5122776E0,5.5285015E0,-2.3105295E0,-9.784832E-1,7.6514544E0,4.72648E0],"split_indices":[5,5,5,5,3,0,5,5,2,5,0,0,0,5,5,0,0,0,0,0,0,0,0,0,0],"split_type":[0,0,0,0,0,0,0,0,0,0,0,0,0,0,0,0,0,0,0,0,0,0,0,0,0],"sum_hessian":[1.61E2,1.25E2,3.6E1,9.1E1,3.4E1,1.8E1,1.8E1,6.4E1,2.7E1,2.5E1,9E0,1E1,8E0,1.7E1,4.7E1,1.9E1,8E0,9E0,1.6E1,7E0,1E1,1.1E1,3.6E1,1.1E1,8E0],"tree_param":{"num_deleted":"0","num_feature":"10","num_nodes":"25","size_leaf_vector":"1"}},{"base_weights":[3.6023555E0,-1.0172607E0,1.9093428E1,-3.403099E1,4.4475703E0,-1.26992035E1,-2.7794652E0,-8.41741E0,1.3023008E1,-1.7244234E1,2.8675246E0,2.4256098E1,2.1508145E0,3.3640945E0,-6.5233583E0,-5.703934E0,4.0120864E0,-1.0957628E0,1.0079528E1,-4.5741177E0,7.1257834E0],"categories":[],"categories_nodes":[],"categories_segments":[],"categories_sizes":[],"default_left":[0,0,0,0,0,0,0,0,0,0,0,0,0,0,0,0,0,0,0,0,0],"id":46,"left_children":[1,3,-1,5,7,-1,-1,9,11,13,15,17,19,-1,-1,-1,-1,-1,-1,-1,-1],"loss_changes":[6.7364945E4,2.7441643E4,0E0,1.2284506E4,1.4473936E4,0E0,0E0,5.269162E3,9.567985E3,1.58295625E4,1.3078706E4,3.0170084E4,3.4498277E4,0E0,0E0,0E0,0E0,0E0,0E0,0E0,0E0],"parents":[2147483647,0,0,1,1,3,3,4,4,7,7,8,8,9,9,10,10,11,11,12,12],"right_children":[2,4,-1,6,8,-1,-1,10,12,14,16,18,20,-1,-1,-1,-1,-1,-1,-1,-1],"split_conditions":[1.0670391E0,4.4E1,1.9093428E1,5E0,4E0,-1.26992035E1,-2.7794652E0,9.2743605E-1,9.3048126E-1,2.1E1,1.4E1,9.037433E-1,2.8E1,3.3640945E0,-6.5233583E0,-5.703934E0,4.0120864E0,-1.0957628E0,1.0079528E1,-4.5741177E0,7.1257834E0],"split_indices":[5,1,0,8,7,0,0,5,5,8,8,5,8,0,0,0,0,0,0,0,0],"split_type":[0,0,0,0,0,0,0,0,0,0,0,0,0,0,0,0,0,0,0,0,0],"sum_hessian":[1.58E2,1.51E2,7E0,2.1E1,1.3E2,8E0,1.3E1,5.2E1,7.8E1,2.9E1,2.3E1,3.8E1,4E1,9E0,2E1,8E0,1.5E1,1.8E1,2E1,2.3E1,1.7E1],"tree_param":{"num_deleted":"0","num_feature":"10","num_nodes":"21","size_leaf_vector":"1"}},{"base_weights":[1.7809131E0,1.1122905E1,-1.6991081E1,3.6712534E0,4.5227287E1,5.1218047E0,-3.0829237E1,1.1678439E1,-1.9357922E1,-2.3919067E0,1.8891819E1,6.627809E0,-5.9795704E0,2.1112226E1,4.2627096E0,-7.044488E0,-9.867562E0,-1.2531954E1,2.940857E0,8.763348E0,1.2542768E0,2.0211697E0,-4.6924615E-1,-2.802977E0,-1.1028105E0,-4.988848E0,1.5231024E0],"categories":[],"categories_nodes":[],"categories_segments":[],"categories_sizes":[],"default_left":[0,0,0,0,0,0,0,0,0,0,0,0,0,0,0,0,0,0,0,0,0,0,0,0,0,0,0],"id":47,"left_children":[1,3,5,7,9,11,-1,13,15,-1,-1,-1,17,19,21,-1,23,25,-1,-1,-1,-1,-1,-1,-1,-1,-1],"loss_changes":[2.880357E4,2.775346E4,1.6606978E5,1.6842182E4,5.5859848E4,1.4923917E4,0E0,4.6751914E3,3.3446797E3,0E0,0E0,0E0,4.799852E3,9.808966E3,1.5048407E3,0E0,2.3529712E2,6.766003E3,0E0,0E0,0E0,0E0,0E0,0E0,0E0,0E0,0E0],"parents":[2147483647,0,0,1,1,2,2,3,3,4,4,5,5,7,7,8,8,12,12,13,13,14,14,16,16,17,17],"right_children":[2,4,6,8,10,12,-1,14,16,-1,-1,-1,18,20,22,-1,24,26,-1,-1,-1,-1,-1,-1,-1,-1,-1],"split_conditions":[1.0786517E0,5.4E1,5.35E1,5.052E1,9.0425533E-1,1.1612903E0,-3.0829237E1,8.707865E-1,9.4148934E-1,-2.3919067E0,1.8891819E1,6.627809E0,7E0,6E0,4E0,-7.044488E0,5.35E1,8.274E1,2.940857E0,8.763348E0,1.2542768E0,2.0211697E0,-4.6924615E-1,-2.802977E0,-1.1028105E0,-4.988848E0,1.5231024E0],"split_indices":[6,0,0,0,6,6,0,6,6,0,0,0,7,7,7,0,0,1,0,0,0,0,0,0,0,0,0],"split_type":[0,0,0,0,0,0,0,0,0,0,0,0,0,0,0,0,0,0,0,0,0,0,0,0,0,0,0],"sum_hessian":[1.63E2,1.09E2,5.4E1,9E1,1.9E1,4.7E1,7E0,6.7E1,2.3E1,9E0,1E1,1.3E1,3.4E1,2.9E1,3.8E1,8E0,1.5E1,2.6E1,8E0,1.1E1,1.8E1,2E1,1.8E1,7E0,8E0,1.6E1,1E1],"tree_param":{"num_deleted":"0","num_feature":"10","num_nodes":"27","size_leaf_vector":"1"}},{"base_weights":[-6.3696156E0,-2.4165119E-1,-3.5894047E1,3.5601997E1,-5.299981E0,-2.104248E1,-1.2485115E1,-1.1810394E1,3.0470844E1,-3.782563E1,4.5548312E-2,1.5899869E0,-1.27265625E1,-2.6824652E1,8.1548195E0,1.3182437E1,-6.783253E0,-7.0400715E-2,-1.2472953E1],"categories":[],"categories_nodes":[],"categories_segments":[],"categories_sizes":[],"default_left":[0,0,0,0,0,0,0,0,0,0,0,0,0,0,0,0,0,0,0],"id":48,"left_children":[1,3,5,7,9,11,-1,-1,-1,13,15,-1,-1,-1,-1,-1,17,-1,-1],"loss_changes":[2.9051293E4,2.4336094E4,1.0087207E4,1.8884572E5,2.0447771E4,2.3270742E4,0E0,0E0,0E0,1.28926125E5,4.5966938E4,0E0,0E0,0E0,0E0,0E0,3.3087492E4,0E0,0E0],"parents":[2147483647,0,0,1,1,2,2,3,3,4,4,5,5,9,9,10,10,16,16],"right_children":[2,4,6,8,10,12,-1,-1,-1,14,16,-1,-1,-1,-1,-1,18,-1,-1],"split_conditions":[9E1,8.478153E0,2.1767E1,2.1E1,3E0,4.36E1,-1.2485115E1,-1.1810394E1,3.0470844E1,1.261396E1,2.85E1,1.5899869E0,-1.27265625E1,-2.6824652E1,8.1548195E0,1.3182437E1,2.766047E1,-7.0400715E-2,-1.2472953E1],"split_indices":[8,9,9,8,8,0,0,0,0,9,0,0,0,0,0,0,9,0,0],"split_type":[0,0,0,0,0,0,0,0,0,0,0,0,0,0,0,0,0,0,0],"sum_hessian":[1.6E2,1.33E2,2.7E1,1.6E1,1.17E2,1.8E1,9E0,9E0,7E0,1.6E1,1.01E2,1.1E1,7E0,7E0,9E0,9E0,9.2E1,8.3E1,9E0],"tree_param":{"num_deleted":"0","num_feature":"10","num_nodes":"19","size_leaf_vector":"1"}},{"base_weights":[-1.0819967E1,6.664578E-1,-1.7532324E1,1.1240436E1,-8.970781E0,-2.5760443E1,6.213015E0,1.4456302E1,-1.9377718E1,-1.1325492E1,-5.9528366E1,-5.033759E0,2.4136965E1,-7.50369E-1,6.7837944E0,-1.2921031E1,-6.502533E0,-1.5426198E1,1.8103468E0,-2.2976292E1,-2.90398E0,1.16871195E1,-2.3691287E0,1.5682108E0,-6.7773643E0,4.244625E0,-4.993343E0],"categories":[],"categories_nodes":[],"categories_segments":[],"categories_sizes":[],"default_left":[0,0,0,0,0,0,0,0,0,0,0,0,0,0,0,0,0,0,0,0,0,0,0,0,0,0,0],"id":49,"left_children":[1,3,5,-1,7,9,11,13,15,17,19,-1,21,-1,-1,-1,23,-1,25,-1,-1,-1,-1,-1,-1,-1,-1],"loss_changes":[1.1926824E4,3.113066E4,1.9165062E4,0E0,1.2260767E4,3.4983504E4,1.476414E4,5.6046694E3,1.9895924E4,4.4687355E4,5.2812484E4,0E0,2.0902283E4,0E0,0E0,0E0,1.1000399E4,0E0,2.2981951E4,0E0,0E0,0E0,0E0,0E0,0E0,0E0,0E0],"parents":[2147483647,0,0,1,1,2,2,4,4,5,5,6,6,7,7,8,8,9,9,10,10,12,12,16,16,18,18],"right_children":[2,4,6,-1,8,10,12,14,16,18,20,-1,22,-1,-1,-1,24,-1,26,-1,-1,-1,-1,-1,-1,-1,-1],"split_conditions":[1E0,3E0,1.2115384E0,1.1240436E1,1.1466E1,1.0786517E0,1.4E1,8.032423E0,1.303349E1,3E0,1.1458334E0,-5.033759E0,1.275351E1,-7.50369E-1,6.7837944E0,-1.2921031E1,2.3961E1,-1.5426198E1,1.909018E1,-2.2976292E1,-2.90398E0,1.16871195E1,-2.3691287E0,1.5682108E0,-6.7773643E0,4.244625E0,-4.993343E0],"split_indices":[6,8,6,0,9,6,8,9,9,8,6,0,9,0,0,0,9,0,9,0,0,0,0,0,0,0,0],"split_type":[0,0,0,0,0,0,0,0,0,0,0,0,0,0,0,0,0,0,0,0,0,0,0,0,0,0,0],"sum_hessian":[1.54E2,5.7E1,9.7E1,8E0,4.9E1,7.2E1,2.5E1,1.5E1,3.4E1,5.1E1,2.1E1,9E0,1.6E1,8E0,7E0,7E0,2.7E1,8E0,4.3E1,9E0,1.2E1,8E0,8E0,1.8E1,9E0,2.5E1,1.8E1],"tree_param":{"num_deleted":"0","num_feature":"10","num_nodes":"27","size_leaf_vector":"1"}},{"base_weights":[3.30944E0,-3.1253815E1,8.254199E0,-2.585344E1,5.87073E0,1.9761063E1,-2.2358467E1,4.8179543E1,-4.190204E0,-5.4907207E0,-1.5771001E1,2.9525791E1,2.1620169E1,-1.976368E1,2.208923E1,2.015525E1,-2.9281538E1,1.0972291E1,-1.076879E1,-1.1439413E0,-1.1195808E1,-3.046806E-1,8.890306E0,2.1237667E0,5.6200933E0,4.056165E0,-1.4207588E1],"categories":[],"categories_nodes":[],"categories_segments":[],"categories_sizes":[],"default_left":[0,0,0,0,0,0,0,0,0,0,0,0,0,0,0,0,0,0,0,0,0,0,0,0,0,0,0],"id":50,"left_children":[1,3,5,-1,-1,7,9,11,13,15,-1,17,-1,19,21,23,25,-1,-1,-1,-1,-1,-1,-1,-1,-1,-1],"loss_changes":[2.6747908E4,1.1870739E5,4.8383234E4,0E0,0E0,6.791472E4,3.557186E4,4.9054656E4,2.260765E4,1.8414209E4,0E0,7.696769E4,0E0,1.740571E4,1.09181045E4,9.2718994E2,3.314934E4,0E0,0E0,0E0,0E0,0E0,0E0,0E0,0E0,0E0,0E0],"parents":[2147483647,0,0,1,1,2,2,5,5,6,6,7,7,8,8,9,9,11,11,13,13,14,14,15,15,16,16],"right_children":[2,4,6,-1,-1,8,10,12,14,16,-1,18,-1,20,22,24,26,-1,-1,-1,-1,-1,-1,-1,-1,-1,-1],"split_conditions":[3E0,1.2608E1,1.1235955E0,-2.585344E1,5.87073E0,1.261396E1,7E0,6E1,9.786096E-1,2.1E1,-1.5771001E1,7E0,2.1620169E1,6E1,1.9065E1,1.2608E1,1.1612903E0,1.0972291E1,-1.076879E1,-1.1439413E0,-1.1195808E1,-3.046806E-1,8.890306E0,2.1237667E0,5.6200933E0,4.056165E0,-1.4207588E1],"split_indices":[8,9,6,0,0,9,7,8,5,8,0,7,0,8,9,9,6,0,0,0,0,0,0,0,0,0,0],"split_type":[0,0,0,0,0,0,0,0,0,0,0,0,0,0,0,0,0,0,0,0,0,0,0,0,0,0,0],"sum_hessian":[1.55E2,1.9E1,1.36E2,7E0,1.2E1,9.9E1,3.7E1,4.5E1,5.4E1,2.9E1,8E0,3.5E1,1E1,3.4E1,2E1,1.4E1,1.5E1,2.7E1,8E0,2.5E1,9E0,1E1,1E1,7E0,7E0,7E0,8E0],"tree_param":{"num_deleted":"0","num_feature":"10","num_nodes":"27","size_leaf_vector":"1"}},{"base_weights":[-5.663146E-1,-1.3935515E1,2.9006073E0,5.6592317E0,-2.13666E1,6.247347E0,3.2699435E0,-2.39184E0,-6.0649962E0,1.8491802E1,-6.288617E0,6.665464E-1,8.163803E0,2.0690067E0,-4.481389E0],"categories":[],"categories_nodes":[],"categories_segments":[],"categories_sizes":[],"default_left":[0,0,0,0,0,0,0,0,0,0,0,0,0,0,0],"id":51,"left_children":[1,-1,3,5,7,-1,9,-1,-1,11,13,-1,-1,-1,-1],"loss_changes":[3.8122355E4,0E0,1.0221277E4,8.286617E3,1.0970928E3,0E0,1.8344455E4,0E0,0E0,1.6367523E4,2.0944154E4,0E0,0E0,0E0,0E0],"parents":[2147483647,0,0,2,2,3,3,4,4,6,6,9,9,10,10],"right_children":[2,-1,4,6,8,-1,10,-1,-1,12,14,-1,-1,-1,-1],"split_conditions":[7.709289E0,-1.3935515E1,5.4E1,1E0,4E0,6.247347E0,1.2608E1,-2.39184E0,-6.0649962E0,2.1E1,2.1E1,6.665464E-1,8.163803E0,2.0690067E0,-4.481389E0],"split_indices":[9,0,0,8,7,0,9,0,0,8,8,0,0,0,0],"split_type":[0,0,0,0,0,0,0,0,0,0,0,0,0,0,0],"sum_hessian":[1.58E2,7E0,1.51E2,1.36E2,1.5E1,1.1E1,1.25E2,8E0,7E0,4.8E1,7.7E1,2.9E1,1.9E1,3.8E1,3.9E1],"tree_param":{"num_deleted":"0","num_feature":"10","num_nodes":"15","size_leaf_vector":"1"}},{"base_weights":[1.4168591E0,3.0953695E1,-4.652045E0,1.5921799E1,-6.4164147E0,-2.0401695E1,6.05959E0,4.615473E0,-7.8568788E0,-1.0251124E1,-1.4177822E1,9.770727E0,-5.7786627E0,5.481534E0,-2.5152935E1,-5.078962E0,1.5700395E1,-6.5223007E0,-2.3297727E0,3.116118E0,-5.0902047E0,9.05103E0,1.9025618E0],"categories":[],"categories_nodes":[],"categories_segments":[],"categories_sizes":[],"default_left":[0,0,0,0,0,0,0,0,0,0,0,0,0,0,0,0,0,0,0,0,0,0,0],"id":52,"left_children":[1,3,5,-1,7,9,11,-1,-1,-1,13,15,-1,-1,17,19,21,-1,-1,-1,-1,-1,-1],"loss_changes":[2.7978664E4,4.867204E4,2.1938281E4,0E0,1.5666604E4,9.664809E3,1.0235271E4,0E0,0E0,0E0,2.0769312E4,6.2644375E3,0E0,0E0,3.3577363E3,8.908004E3,8.995051E3,0E0,0E0,0E0,0E0,0E0,0E0],"parents":[2147483647,0,0,1,1,2,2,4,4,5,5,6,6,10,10,11,11,14,14,15,15,16,16],"right_children":[2,4,6,-1,8,10,12,-1,-1,-1,14,16,-1,-1,18,20,22,-1,-1,-1,-1,-1,-1],"split_conditions":[1.006E1,1.0192307E0,1.328121E1,1.5921799E1,5.082E1,8.269231E-1,2.7985E1,4.615473E0,-7.8568788E0,-1.0251124E1,8.707865E-1,9.230769E-1,-5.7786627E0,5.481534E0,1.1612903E0,8.269231E-1,9.787234E-1,-6.5223007E0,-2.3297727E0,3.116118E0,-5.0902047E0,9.05103E0,1.9025618E0],"split_indices":[9,6,9,0,0,6,9,0,0,0,6,6,0,0,6,6,6,0,0,0,0,0,0],"split_type":[0,0,0,0,0,0,0,0,0,0,0,0,0,0,0,0,0,0,0,0,0,0,0],"sum_hessian":[1.55E2,2.6E1,1.29E2,1.1E1,1.5E1,5.2E1,7.7E1,8E0,7E0,8E0,4.4E1,7E1,7E0,9E0,3.5E1,2E1,5E1,2.2E1,1.3E1,1E1,1E1,8E0,4.2E1],"tree_param":{"num_deleted":"0","num_feature":"10","num_nodes":"23","size_leaf_vector":"1"}},{"base_weights":[-3.2680242E0,1.5059651E0,-2.771036E1,-2.62761E0,1.0157929E1,-1.9479035E0,-1.4373713E1,8.259841E0,-1.2510537E1,1.0371135E1,1.0377856E0,-4.966841E1,-1.1312896E0,-1.7371174E0,6.4638467E0,-2.5802617E0,-1.5739006E1,-3.3203485E0,9.5088005E0],"categories":[],"categories_nodes":[],"categories_segments":[],"categories_sizes":[],"default_left":[0,0,0,0,0,0,0,0,0,0,0,0,0,0,0,0,0,0,0],"id":53,"left_children":[1,3,5,7,-1,-1,-1,9,11,-1,13,15,17,-1,-1,-1,-1,-1,-1],"loss_changes":[1.8998418E4,2.790792E4,2.0688719E4,1.36841455E4,0E0,0E0,0E0,1.904771E4,2.8126672E4,0E0,1.6167305E4,1.6039543E4,3.9329875E4,0E0,0E0,0E0,0E0,0E0,0E0],"parents":[2147483647,0,0,1,1,2,2,3,3,7,7,8,8,10,10,11,11,12,12],"right_children":[2,4,6,8,-1,-1,-1,10,12,-1,14,16,18,-1,-1,-1,-1,-1,-1],"split_conditions":[9E1,1.0614525E0,9.786096E-1,9.343284E-1,1.0157929E1,-1.9479035E0,-1.4373713E1,1E0,9.890531E-1,1.0371135E1,9.2743605E-1,1.4E1,2.8E1,-1.7371174E0,6.4638467E0,-2.5802617E0,-1.5739006E1,-3.3203485E0,9.5088005E0],"split_indices":[8,5,5,5,0,0,0,8,5,0,5,8,8,0,0,0,0,0,0],"split_type":[0,0,0,0,0,0,0,0,0,0,0,0,0,0,0,0,0,0,0],"sum_hessian":[1.62E2,1.36E2,2.6E1,1.26E2,1E1,1.9E1,7E0,6E1,6.6E1,8E0,5.2E1,1.5E1,5.1E1,4E1,1.2E1,7E0,8E0,3.9E1,1.2E1],"tree_param":{"num_deleted":"0","num_feature":"10","num_nodes":"19","size_leaf_vector":"1"}},{"base_weights":[4.111892E0,-1.0305786E0,2.7065422E1,4.3795867E0,-1.2709284E1,5.2454784E1,-4.2825904E0,3.6558426E1,-6.560277E-1,-6.7146964E0,2.8833181E1,-4.7163424E0,1.8829596E1,1.2902374E1,-2.2887455E1,-2.4930334E-1,1.2669383E1,-1.3957763E0,-1.4764542E1],"categories":[],"categories_nodes":[],"categories_segments":[],"categories_sizes":[],"default_left":[0,0,0,0,0,0,0,0,0,0,0,0,0,0,0,0,0,0,0],"id":54,"left_children":[1,3,5,7,-1,9,-1,11,13,-1,-1,-1,-1,15,17,-1,-1,-1,-1],"loss_changes":[1.9091652E4,4.5015094E4,3.710664E4,1.988052E4,0E0,1.5754316E5,0E0,5.882527E4,3.2308838E4,0E0,0E0,0E0,0E0,4.758208E4,3.2589352E4,0E0,0E0,0E0,0E0],"parents":[2147483647,0,0,1,1,2,2,3,3,5,5,7,7,8,8,13,13,14,14],"right_children":[2,4,6,8,-1,10,-1,12,14,-1,-1,-1,-1,16,18,-1,-1,-1,-1],"split_conditions":[6E1,1.0481013E0,1.0192307E0,1.006E1,-1.2709284E1,9.364202E-1,-4.2825904E0,1.0344827E0,2.1E1,-6.7146964E0,2.8833181E1,-4.7163424E0,1.8829596E1,1.4E1,9.364202E-1,-2.4930334E-1,1.2669383E1,-1.3957763E0,-1.4764542E1],"split_indices":[8,5,6,9,0,5,0,6,8,0,0,0,0,8,5,0,0,0,0],"split_type":[0,0,0,0,0,0,0,0,0,0,0,0,0,0,0,0,0,0,0],"sum_hessian":[1.61E2,1.32E2,2.9E1,1.22E2,1E1,1.9E1,1E1,1.6E1,1.06E2,1E1,9E0,8E0,8E0,6.6E1,4E1,5.2E1,1.4E1,3.1E1,9E0],"tree_param":{"num_deleted":"0","num_feature":"10","num_nodes":"19","size_leaf_vector":"1"}},{"base_weights":[-2.9556189E0,-1.013315E1,1.3655448E1,4.2514696E0,-2.051428E1,-3.0317707E0,2.0794384E1,-6.447422E0,1.3752548E1,-2.7971771E1,3.5305889E0,-1.0151848E0,3.458949E1,2.1581022E1,-3.5646045E0,-4.4952744E1,-1.6726646E1,4.735091E0,1.0032591E1,8.934776E-1,6.311576E0,-1.6486553E1,2.6192174E0,-1.065631E0,-8.740504E0],"categories":[],"categories_nodes":[],"categories_segments":[],"categories_sizes":[],"default_left":[0,0,0,0,0,0,0,0,0,0,0,0,0,0,0,0,0,0,0,0,0,0,0,0,0],"id":55,"left_children":[1,3,5,7,9,-1,11,-1,13,15,-1,-1,17,19,-1,21,23,-1,-1,-1,-1,-1,-1,-1,-1],"loss_changes":[1.8396207E4,1.612009E4,9.774913E3,1.6074653E4,1.8114217E4,0E0,1.3524167E4,0E0,9.277882E3,9.592988E3,0E0,0E0,3.468664E3,4.969324E3,0E0,4.5466555E4,9.884272E3,0E0,0E0,0E0,0E0,0E0,0E0,0E0,0E0],"parents":[2147483647,0,0,1,1,2,2,3,3,4,4,6,6,8,8,9,9,12,12,13,13,15,15,16,16],"right_children":[2,4,6,8,10,-1,12,-1,14,16,-1,-1,18,20,-1,22,24,-1,-1,-1,-1,-1,-1,-1,-1],"split_conditions":[1.9065E1,1.4E1,9.037433E-1,2.85E1,1E0,-3.0317707E0,1.4E1,-6.447422E0,1.356453E1,1.008888E1,3.5305889E0,-1.0151848E0,6E1,9.343284E-1,-3.5646045E0,6E1,9E1,4.735091E0,1.0032591E1,8.934776E-1,6.311576E0,-1.6486553E1,2.6192174E0,-1.065631E0,-8.740504E0],"split_indices":[9,8,5,0,4,0,8,0,9,9,0,0,8,5,0,8,8,0,0,0,0,0,0,0,0],"split_type":[0,0,0,0,0,0,0,0,0,0,0,0,0,0,0,0,0,0,0,0,0,0,0,0,0],"sum_hessian":[1.53E2,1.07E2,4.6E1,4.5E1,6.2E1,9E0,3.7E1,9E0,3.6E1,5.2E1,1E1,1.3E1,2.4E1,2.9E1,7E0,2E1,3.2E1,1.5E1,9E0,1.1E1,1.8E1,1.2E1,8E0,2.3E1,9E0],"tree_param":{"num_deleted":"0","num_feature":"10","num_nodes":"25","size_leaf_vector":"1"}},{"base_weights":[3.7916815E0,6.170708E0,-9.168234E0,-2.0374395E1,9.467234E0,2.6378496E0,-8.657125E0,5.9200497E0,3.9836624E1,-5.257183E-1,2.3770403E1,5.1206217E0,1.0185028E1,5.714276E-1,-7.8061943E0,8.839755E0,2.7981231E0],"categories":[],"categories_nodes":[],"categories_segments":[],"categories_sizes":[],"default_left":[0,0,0,0,0,0,0,0,0,0,0,0,0,0,0,0,0],"id":56,"left_children":[1,3,-1,5,7,-1,-1,9,11,13,15,-1,-1,-1,-1,-1,-1],"loss_changes":[1.9605344E4,1.3906772E4,0E0,1.3876668E4,1.5004747E4,0E0,0E0,1.4573996E4,1.5219941E3,1.2259034E4,6.341758E3,0E0,0E0,0E0,0E0,0E0,0E0],"parents":[2147483647,0,0,1,1,3,3,4,4,7,7,8,8,9,9,10,10],"right_children":[2,4,-1,6,8,-1,-1,10,12,14,16,-1,-1,-1,-1,-1,-1],"split_conditions":[3.652764E1,8.032423E0,-9.168234E0,1.4E1,9E0,2.6378496E0,-8.657125E0,2.3584E1,1.4E1,2.2122E1,2.3961E1,5.1206217E0,1.0185028E1,5.714276E-1,-7.8061943E0,8.839755E0,2.7981231E0],"split_indices":[9,9,0,8,7,0,0,9,8,9,9,0,0,0,0,0,0],"split_type":[0,0,0,0,0,0,0,0,0,0,0,0,0,0,0,0,0],"sum_hessian":[1.64E2,1.57E2,7E0,1.7E1,1.4E2,7E0,1E1,1.26E2,1.4E1,9.3E1,3.3E1,7E0,7E0,8.6E1,7E0,1E1,2.3E1],"tree_param":{"num_deleted":"0","num_feature":"10","num_nodes":"17","size_leaf_vector":"1"}},{"base_weights":[-3.8085976E0,-4.494867E-1,-9.212763E0,5.195467E0,-1.813789E1,5.1866674E0,2.303456E0,8.5635436E-1,-4.2522423E1,-4.860716E0,1.5063548E1,-5.4027348E0,1.0132285E1,-1.0096678E1,-6.504094E0,-4.3550057E0,1.257156E-1,7.897503E0,-3.727352E-1],"categories":[],"categories_nodes":[],"categories_segments":[],"categories_sizes":[],"default_left":[0,0,0,0,0,0,0,0,0,0,0,0,0,0,0,0,0,0,0],"id":57,"left_children":[1,3,-1,5,7,-1,9,11,13,15,17,-1,-1,-1,-1,-1,-1,-1,-1],"loss_changes":[2.2357312E4,1.4694584E4,0E0,6.6572734E3,1.6510547E4,0E0,9.057499E3,2.9415346E4,2.5710742E2,5.913321E3,1.476226E4,0E0,0E0,0E0,0E0,0E0,0E0,0E0,0E0],"parents":[2147483647,0,0,1,1,3,3,4,4,6,6,7,7,8,8,9,9,10,10],"right_children":[2,4,-1,6,8,-1,10,12,14,16,18,-1,-1,-1,-1,-1,-1,-1,-1],"split_conditions":[1.0614525E0,1E0,-9.212763E0,3E0,1.4E1,5.1866674E0,9.343284E-1,5E0,9.951923E-1,1.4E1,9.890531E-1,-5.4027348E0,1.0132285E1,-1.0096678E1,-6.504094E0,-4.3550057E0,1.257156E-1,7.897503E0,-3.727352E-1],"split_indices":[5,2,0,8,8,0,5,8,5,8,5,0,0,0,0,0,0,0,0],"split_type":[0,0,0,0,0,0,0,0,0,0,0,0,0,0,0,0,0,0,0],"sum_hessian":[1.57E2,1.46E2,1.1E1,1.11E2,3.5E1,1.3E1,9.8E1,2E1,1.5E1,6.3E1,3.5E1,1.3E1,7E0,7E0,8E0,1.5E1,4.8E1,1.4E1,2.1E1],"tree_param":{"num_deleted":"0","num_feature":"10","num_nodes":"19","size_leaf_vector":"1"}},{"base_weights":[1.5294836E0,-5.7970614E0,2.8155573E1,-1.4316869E1,1.5135135E1,1.4205704E1,1.3218869E1,-5.6217506E1,-4.8019257E0,-8.909906E0,3.1241016E1,7.9868393E0,-2.4398496E0,-2.2594151E0,-2.052206E1,1.3001125E0,-1.5320275E1,5.9379177E1,-3.4494607E0,-2.4668438E0,2.9799857E0,1.3785533E0,-8.4971285E0,2.1796862E1,-2.8989515E0],"categories":[],"categories_nodes":[],"categories_segments":[],"categories_sizes":[],"default_left":[0,0,0,0,0,0,0,0,0,0,0,0,0,0,0,0,0,0,0,0,0,0,0,0,0],"id":58,"left_children":[1,3,5,7,9,11,-1,13,15,-1,17,-1,-1,-1,-1,19,21,23,-1,-1,-1,-1,-1,-1,-1],"loss_changes":[2.9476566E4,2.1280936E4,1.66899E4,3.356654E4,3.409515E4,1.7004545E4,0E0,3.1814629E4,4.4791133E3,0E0,3.827115E4,0E0,0E0,0E0,0E0,8.380195E3,1.5623395E4,6.544347E4,0E0,0E0,0E0,0E0,0E0,0E0,0E0],"parents":[2147483647,0,0,1,1,2,2,3,3,4,4,5,5,7,7,8,8,10,10,15,15,16,16,17,17],"right_children":[2,4,6,8,10,12,-1,14,16,-1,18,-1,-1,-1,-1,20,22,24,-1,-1,-1,-1,-1,-1,-1],"split_conditions":[1E0,6E1,1.0344827E0,1.0229E1,8.988764E-1,1.4E1,1.3218869E1,1.4E1,1.0786517E0,-8.909906E0,1.909018E1,7.9868393E0,-2.4398496E0,-2.2594151E0,-2.052206E1,1.4E1,2.1E1,1.0192307E0,-3.4494607E0,-2.4668438E0,2.9799857E0,1.3785533E0,-8.4971285E0,2.1796862E1,-2.8989515E0],"split_indices":[2,8,6,9,6,8,0,8,6,0,9,0,0,0,0,8,8,6,0,0,0,0,0,0,0],"split_type":[0,0,0,0,0,0,0,0,0,0,0,0,0,0,0,0,0,0,0,0,0,0,0,0,0],"sum_hessian":[1.5E2,1.18E2,3.2E1,8.4E1,3.4E1,2.4E1,8E0,1.5E1,6.9E1,7E0,2.7E1,1.2E1,1.2E1,8E0,7E0,4.4E1,2.5E1,1.7E1,1E1,2.2E1,2.2E1,1.4E1,1.1E1,1E1,7E0],"tree_param":{"num_deleted":"0","num_feature":"10","num_nodes":"25","size_leaf_vector":"1"}},{"base_weights":[-3.5830207E0,-8.372799E0,1.0461745E1,5.8681545E0,-1.2608897E1,5.9879317E0,5.86921E0,4.3249044E0,-2.783833E0,1.649638E0,-1.8901802E1,1.1211681E1,-4.9639985E-1,-2.9282897E0,2.5000563E0,-7.4089103E0,-1.5891574E1,1.462654E0,2.8950937E0,-6.9570726E-1,-3.4249157E-1,-4.149857E0,1.1810551E0],"categories":[],"categories_nodes":[],"categories_segments":[],"categories_sizes":[],"default_left":[0,0,0,0,0,0,0,0,0,0,0,0,0,0,0,0,0,0,0,0,0,0,0],"id":59,"left_children":[1,3,5,7,9,-1,11,-1,-1,13,15,17,-1,19,-1,-1,21,-1,-1,-1,-1,-1,-1],"loss_changes":[1.0721787E4,7.1990684E3,3.5263584E3,8.785622E3,8.237759E3,0E0,1.5157969E3,0E0,0E0,1.4426235E3,3.1202207E3,1.9858813E2,0E0,1.0207443E1,0E0,0E0,5.9606016E3,0E0,0E0,0E0,0E0,0E0,0E0],"parents":[2147483647,0,0,1,1,2,2,3,3,4,4,6,6,9,9,10,10,11,11,13,13,16,16],"right_children":[2,4,6,8,10,-1,12,-1,-1,14,16,18,-1,20,-1,-1,22,-1,-1,-1,-1,-1,-1],"split_conditions":[2.3584E1,1.006E1,8.6316514E-1,5.35E1,9.0909094E-1,5.9879317E0,2.4342E1,4.3249044E0,-2.783833E0,1.4483E1,9.3048126E-1,9.0909094E-1,-4.9639985E-1,9.037433E-1,2.5000563E0,-7.4089103E0,1.909018E1,1.462654E0,2.8950937E0,-6.9570726E-1,-3.4249157E-1,-4.149857E0,1.1810551E0],"split_indices":[9,9,5,0,5,0,9,0,0,9,5,5,0,5,0,0,9,0,0,0,0,0,0],"split_type":[0,0,0,0,0,0,0,0,0,0,0,0,0,0,0,0,0,0,0,0,0,0,0],"sum_hessian":[1.58E2,1.18E2,4E1,2.7E1,9.1E1,7E0,3.3E1,1.5E1,1.2E1,2.8E1,6.3E1,2E1,1.3E1,2E1,8E0,8E0,5.5E1,1E1,1E1,1.3E1,7E0,4.5E1,1E1],"tree_param":{"num_deleted":"0","num_feature":"10","num_nodes":"23","size_leaf_vector":"1"}},{"base_weights":[4.5307082E-1,5.0452843E0,-1.2338205E1,-3.387984E0,4.7745605E1,-1.5904314E1,4.574507E0,2.587469E0,-5.095383E0,1.6153614E1,1.6598421E0,1.0951152E1,-3.0935504E0,-1.7879796E0,-1.8752638E1,2.2386457E1,-1.5153693E0,-1.0591861E0,3.872186E0,-7.0462584E0,1.1422448E0,7.6713333E0,1.6688442E0],"categories":[],"categories_nodes":[],"categories_segments":[],"categories_sizes":[],"default_left":[0,0,0,0,0,0,0,0,0,0,0,0,0,0,0,0,0,0,0,0,0,0,0],"id":60,"left_children":[1,3,5,7,9,-1,11,-1,13,-1,-1,15,-1,17,19,21,-1,-1,-1,-1,-1,-1,-1],"loss_changes":[9.471037E3,4.280531E4,4.862263E4,2.8157883E3,2.5129105E4,0E0,4.5235947E3,0E0,4.0722888E3,0E0,0E0,5.7376025E3,0E0,5.521855E3,7.215844E3,3.5306406E3,0E0,0E0,0E0,0E0,0E0,0E0,0E0],"parents":[2147483647,0,0,1,1,2,2,3,3,4,4,6,6,8,8,11,11,13,13,14,14,15,15],"right_children":[2,4,6,8,10,-1,12,-1,14,-1,-1,16,-1,18,20,22,-1,-1,-1,-1,-1,-1,-1],"split_conditions":[1.1235955E0,1.011236E0,1.1612903E0,8.6316514E-1,8.478153E0,-1.5904314E1,1.2758621E0,2.587469E0,2.280151E1,1.6153614E1,1.6598421E0,9.3048126E-1,-3.0935504E0,1.9065E1,1.0119402E0,1.2608E1,-1.5153693E0,-1.0591861E0,3.872186E0,-7.0462584E0,1.1422448E0,7.6713333E0,1.6688442E0],"split_indices":[6,6,6,5,9,0,6,0,9,0,0,5,0,9,5,9,0,0,0,0,0,0,0],"split_type":[0,0,0,0,0,0,0,0,0,0,0,0,0,0,0,0,0,0,0,0,0,0,0],"sum_hessian":[1.6E2,1.18E2,4.2E1,9.9E1,1.9E1,8E0,3.4E1,9E0,9E1,1E1,9E0,2.6E1,8E0,7.3E1,1.7E1,1.6E1,1E1,6.3E1,1E1,1E1,7E0,7E0,9E0],"tree_param":{"num_deleted":"0","num_feature":"10","num_nodes":"23","size_leaf_vector":"1"}},{"base_weights":[-4.281207E0,4.374742E-1,-2.6068913E1,3.0143198E1,-3.7938936E0,-4.115297E1,-9.909784E-1,-5.382846E0,1.9967201E1,2.4367168E1,-1.01328335E1,-9.666064E0,-6.2208962E0,-1.1908875E0,3.9149628E1,-2.6768475E0,-2.1591372E1,1.1850026E1,3.191673E0,3.9958923E0,-3.7477345E0,-2.3224568E0,-1.201315E1],"categories":[],"categories_nodes":[],"categories_segments":[],"categories_sizes":[],"default_left":[0,0,0,0,0,0,0,0,0,0,0,0,0,0,0,0,0,0,0,0,0,0,0],"id":61,"left_children":[1,3,5,7,9,11,-1,-1,-1,13,15,-1,-1,-1,17,19,21,-1,-1,-1,-1,-1,-1],"loss_changes":[1.6518006E4,1.6735885E4,8.986328E3,6.7621984E4,2.0962559E4,2.9524414E2,0E0,0E0,0E0,9.821591E3,8.132879E3,0E0,0E0,0E0,6.2385586E3,2.154927E4,1.4017613E4,0E0,0E0,0E0,0E0,0E0,0E0],"parents":[2147483647,0,0,1,1,2,2,3,3,4,4,5,5,9,9,10,10,14,14,15,15,16,16],"right_children":[2,4,6,8,10,12,-1,-1,-1,14,16,-1,-1,-1,18,20,22,-1,-1,-1,-1,-1,-1],"split_conditions":[9E1,8.478153E0,1.9065E1,2.1E1,9.037433E-1,1.2608E1,-9.909784E-1,-5.382846E0,1.9967201E1,9.92E1,9.92E1,-9.666064E0,-6.2208962E0,-1.1908875E0,8.6316514E-1,9.9124247E-1,9.364202E-1,1.1850026E1,3.191673E0,3.9958923E0,-3.7477345E0,-2.3224568E0,-1.201315E1],"split_indices":[8,9,9,8,5,9,0,0,0,1,1,0,0,0,5,5,5,0,0,0,0,0,0],"split_type":[0,0,0,0,0,0,0,0,0,0,0,0,0,0,0,0,0,0,0,0,0,0,0],"sum_hessian":[1.6E2,1.32E2,2.8E1,1.6E1,1.16E2,1.6E1,1.2E1,9E0,7E0,2.1E1,9.5E1,8E0,8E0,7E0,1.4E1,5.8E1,3.7E1,7E0,7E0,2.4E1,3.4E1,3E1,7E0],"tree_param":{"num_deleted":"0","num_feature":"10","num_nodes":"23","size_leaf_vector":"1"}},{"base_weights":[7.0563827E0,1.1482012E1,-2.7101068E1,6.1033645E0,3.0259476E1,-3.3176422E0,-8.20149E0,1.1154256E0,1.5902253E1,1.2847663E1,1.0244419E1,1.1995137E1,-1.4763803E1,3.0660507E1,-5.811788E0,-1.477979E0,7.0732026E0,-3.0011816E0,4.928558E0,-1.4887176E-1,-1.0115113E1,-1.8140895E-2,1.6576937E1],"categories":[],"categories_nodes":[],"categories_segments":[],"categories_sizes":[],"default_left":[0,0,0,0,0,0,0,0,0,0,0,0,0,0,0,0,0,0,0,0,0,0,0],"id":62,"left_children":[1,3,5,7,9,-1,-1,11,13,-1,15,17,19,21,-1,-1,-1,-1,-1,-1,-1,-1,-1],"loss_changes":[2.446432E4,1.4291414E4,2.3110986E3,5.443948E3,2.1095936E4,0E0,0E0,1.2994259E4,2.5484008E4,0E0,9.282652E3,1.5452765E4,1.5340477E4,4.5934875E4,0E0,0E0,0E0,0E0,0E0,0E0,0E0,0E0,0E0],"parents":[2147483647,0,0,1,1,2,2,3,3,4,4,7,7,8,8,10,10,11,11,12,12,13,13],"right_children":[2,4,6,8,10,-1,-1,12,14,-1,16,18,20,22,-1,-1,-1,-1,-1,-1,-1,-1,-1],"split_conditions":[2.4342E1,6E1,5.35E1,9.951923E-1,1.2608E1,-3.3176422E0,-8.20149E0,2.1E1,7E0,1.2847663E1,2.280151E1,5E0,9.3048126E-1,2.1E1,-5.811788E0,-1.477979E0,7.0732026E0,-3.0011816E0,4.928558E0,-1.4887176E-1,-1.0115113E1,-1.8140895E-2,1.6576937E1],"split_indices":[9,8,0,5,9,0,0,8,7,0,9,8,5,8,0,0,0,0,0,0,0,0,0],"split_type":[0,0,0,0,0,0,0,0,0,0,0,0,0,0,0,0,0,0,0,0,0,0,0],"sum_hessian":[1.6E2,1.42E2,1.8E1,1.11E2,3.1E1,1.1E1,7E0,7.4E1,3.7E1,1.1E1,2E1,4.4E1,3E1,2.8E1,9E0,1.2E1,8E0,1.4E1,3E1,2.2E1,8E0,1.8E1,1E1],"tree_param":{"num_deleted":"0","num_feature":"10","num_nodes":"23","size_leaf_vector":"1"}},{"base_weights":[-4.300822E0,-2.2211044E1,-2.1829536E0,-1.0244872E1,4.292048E-1,-5.175889E0,6.3252563E0,-1.1202149E1,4.800894E0,-3.350657E1,-4.1112885E0,2.2723322E1,-5.8395395E0,-1.432274E0,-1.210038E1,-1.8413647E0,2.930761E0,5.8412814E0,3.2354467E0,9.235472E-2,-2.839977E0],"categories":[],"categories_nodes":[],"categories_segments":[],"categories_sizes":[],"default_left":[0,0,0,0,0,0,0,0,0,0,0,0,0,0,0,0,0,0,0,0,0],"id":63,"left_children":[1,3,5,-1,-1,7,-1,9,11,13,15,17,19,-1,-1,-1,-1,-1,-1,-1,-1],"loss_changes":[5.9489116E3,1.1796838E4,1.4426558E4,0E0,0E0,7.884293E3,0E0,1.2823002E4,9.538455E3,1.3679504E4,6.0666475E3,5.05875E2,1.6686586E3,0E0,0E0,0E0,0E0,0E0,0E0,0E0,0E0],"parents":[2147483647,0,0,1,1,2,2,5,5,7,7,8,8,9,9,10,10,11,11,12,12],"right_children":[2,4,6,-1,-1,8,-1,10,12,14,16,18,20,-1,-1,-1,-1,-1,-1,-1,-1],"split_conditions":[8.269231E-1,1.328121E1,9E0,-1.0244872E1,4.292048E-1,1.0955056E0,6.3252563E0,1.1283E1,1.1612903E0,1E0,2.56538E1,6E0,1E0,-1.432274E0,-1.210038E1,-1.8413647E0,2.930761E0,5.8412814E0,3.2354467E0,9.235472E-2,-2.839977E0],"split_indices":[6,9,7,0,0,6,0,9,6,2,9,7,4,0,0,0,0,0,0,0,0],"split_type":[0,0,0,0,0,0,0,0,0,0,0,0,0,0,0,0,0,0,0,0,0],"sum_hessian":[1.57E2,1.6E1,1.41E2,7E0,9E0,1.3E2,1.1E1,8.1E1,4.9E1,1.9E1,6.2E1,1.8E1,3.1E1,1E1,9E0,4.9E1,1.3E1,8E0,1E1,1.8E1,1.3E1],"tree_param":{"num_deleted":"0","num_feature":"10","num_nodes":"21","size_leaf_vector":"1"}},{"base_weights":[-2.5607216E0,-3.073255E1,4.102815E0,-9.445584E0,6.128137E-1,7.241718E0,1.2367376E0,-4.3369203E0,1.2146125E1,-6.1696947E-1,-1.0608114E1,2.0833769E1,-3.4419677E0,-1.2240282E0,2.393056E0,-3.581555E0,1.8676758E-2,2.8847485E0,7.987449E0],"categories":[],"categories_nodes":[],"categories_segments":[],"categories_sizes":[],"default_left":[0,0,0,0,0,0,0,0,0,0,0,0,0,0,0,0,0,0,0],"id":64,"left_children":[1,3,5,-1,-1,-1,7,9,11,13,15,17,-1,-1,-1,-1,-1,-1,-1],"loss_changes":[3.0036406E4,1.714595E4,1.1898617E4,0E0,0E0,0E0,7.3039067E3,1.8530244E3,1.0569516E4,3.547597E3,2.3132751E3,3.523913E3,0E0,0E0,0E0,0E0,0E0,0E0,0E0],"parents":[2147483647,0,0,1,1,2,2,6,6,7,7,8,8,9,9,10,10,11,11],"right_children":[2,4,6,-1,-1,-1,8,10,12,14,16,18,-1,-1,-1,-1,-1,-1,-1],"split_conditions":[1.0229E1,9E0,1.137687E1,-9.445584E0,6.128137E-1,7.241718E0,2.3584E1,1.725954E1,2.7985E1,1.328121E1,5.35E1,2.756E1,-3.4419677E0,-1.2240282E0,2.393056E0,-3.581555E0,1.8676758E-2,2.8847485E0,7.987449E0],"split_indices":[9,7,9,0,0,0,9,9,9,9,0,9,0,0,0,0,0,0,0],"split_type":[0,0,0,0,0,0,0,0,0,0,0,0,0,0,0,0,0,0,0],"sum_hessian":[1.59E2,3E1,1.29E2,2E1,1E1,1E1,1.19E2,7.9E1,4E1,5E1,2.9E1,3.1E1,9E0,3.5E1,1.5E1,1.7E1,1.2E1,2.4E1,7E0],"tree_param":{"num_deleted":"0","num_feature":"10","num_nodes":"19","size_leaf_vector":"1"}},{"base_weights":[-6.0686183E0,1.1508157E1,-2.2480951E1,4.2669516E0,1.31881E1,-4.954431E1,-1.0751026E1,2.0804379E1,-1.8954237E1,-2.4897982E1,-1.8159006E1,-1.1400065E1,-2.2595432E0,-1.0817293E1,4.1177914E1,-2.8575712E1,-1.2278708E0,-1.4779189E1,6.502543E0,-8.469279E0,6.218381E0,1.1922758E1,-1.7932325E1,4.0181065E0,1.5311313E1,-1.0287208E1,-1.2759818E0,-3.6283848E0,1.9003079E0],"categories":[],"categories_nodes":[],"categories_segments":[],"categories_sizes":[],"default_left":[0,0,0,0,0,0,0,0,0,0,0,0,0,0,0,0,0,0,0,0,0,0,0,0,0,0,0,0,0],"id":65,"left_children":[1,3,5,7,-1,9,11,13,15,17,-1,-1,19,21,23,25,-1,-1,-1,27,-1,-1,-1,-1,-1,-1,-1,-1,-1],"loss_changes":[4.3888176E4,2.8841041E4,2.4632078E4,2.5428227E4,0E0,2.2637254E4,2.1758238E4,2.5135123E4,3.2977646E3,4.5324445E4,0E0,0E0,1.0016131E4,8.9835266E4,1.6683777E4,7.7185977E3,0E0,0E0,0E0,7.1607354E3,0E0,0E0,0E0,0E0,0E0,0E0,0E0,0E0,0E0],"parents":[2147483647,0,0,1,1,2,2,3,3,5,5,6,6,7,7,8,8,9,9,12,12,13,13,14,14,15,15,19,19],"right_children":[2,4,6,8,-1,10,12,14,16,18,-1,-1,20,22,24,26,-1,-1,-1,28,-1,-1,-1,-1,-1,-1,-1,-1,-1],"split_conditions":[2.1E1,1.0291139E0,6.5E1,5.052E1,1.31881E1,1.0192307E0,8.269231E-1,5E0,1.1235955E0,9.6276593E-1,-1.8159006E1,-1.1400065E1,9.364202E-1,9.6791446E-1,9.4678646E-1,1.0094937E0,-1.2278708E0,-1.4779189E1,